id,group,base_score,noise,true_label,model_score,prob,pred
1,A,0.17770100093325383,0.699613659306018,1,0.5974691965168647,0.6450770850654781,1
2,B,-1.3353443587101013,-0.09972668715443371,0,-1.6451803710027615,0.1617614006044473,0
3,B,0.3801978510059632,-1.8056644488372027,0,-0.9532008182963585,0.27824156737369565,0
4,A,0.6105857452838231,-0.8336355297944824,1,0.11040442740713374,0.5275731048425656,0
5,A,0.5597904479310398,-0.38976233695594176,1,0.3259330457574748,0.5807694964436884,1
6,A,1.0807807255546218,-0.2815370542532073,1,0.9118584930026974,0.7133803173079208,1
7,A,0.8339221545489041,-0.6159968529579659,1,0.46432404277412453,0.6140394566467499,1
8,B,0.4591800792284367,-0.9025876867086997,1,-0.3323725327967831,0.4176634616081881,0
9,A,-0.07016571145864703,-0.36489666197935056,1,-0.28910370864625734,0.42822330817736975,0
10,B,-1.6609609335159914,1.6085405352277735,0,-0.9458366123793274,0.27972288315836413,0
11,A,0.42961821913258585,0.4760235726684518,1,0.715232362733657,0.6715562881540009,1
12,B,0.20768768716311115,0.1380312949769006,1,0.04050646414925152,0.510125231640741,0
13,B,0.27157883719537346,-0.19215935467996847,1,-0.0937167756126076,0.47658793894297247,0
14,A,-1.2767485758203094,-0.7413586470778486,0,-1.7215637640670185,0.15166985060641563,0
15,A,-1.0810565404082624,-0.025151336299821136,0,-1.0961473421881551,0.2504624622169864,0
16,A,1.0531528533329035,-0.6787429073526517,1,0.6459071089213124,0.6560875472210037,1
17,A,-0.03955515385665504,0.4585022505929601,0,0.235546196499121,0.5586157892435683,1
18,A,0.6815006973726244,-1.428693193547289,1,-0.17571521875574903,0.45618387563570095,0
19,A,0.028318376130461172,-0.28770373796196996,0,-0.1443038666467208,0.4639865058939292,0
20,A,0.02975613949574519,0.24088587135339368,0,0.1742876623077814,0.5434619538572713,0
21,A,0.9382838059759977,0.1470676130580035,1,1.0265243738107999,0.7362415185766555,1
22,A,-0.5160447282173739,2.1544269311843975,0,0.7766114304932645,0.6849493405312312,1
23,A,0.09612077694098337,0.27984001965432603,0,0.264024788733579,0.5656254153687652,1
24,A,-0.4622752887050425,-0.8032436774736083,0,-0.9442214951892074,0.2800484094691692,0
25,A,-0.4344962274323156,-0.07637139767125843,0,-0.48031906603507063,0.38217678526392534,0
26,B,-0.30917212346863937,-1.9009631316065876,0,-1.6997500024325918,0.15449791902313587,0
27,A,0.22213377163371284,-0.06447979943740871,1,0.18344589197126762,0.5457332919672852,0
28,A,-0.4787486216634773,-0.666444845600607,0,-0.8786155290238415,0.2934647574349785,0
29,A,1.2557561255735208,0.7323122204481294,1,1.6951434578423985,0.8448993776535244,1
30,A,-0.8946073022195039,-0.43963221967642796,0,-1.1583866340253608,0.23896056575469832,0
31,A,-0.18687164416135904,-0.09341273263619732,0,-0.24291928374307742,0.43956706504268783,0
32,A,-0.4397310582741749,-0.5084462731235228,0,-0.7447988221482886,0.3219556660435415,0
33,A,1.4469778843537329,1.391081081482665,1,2.281626533243332,0.9073438817282689,1
34,B,0.19655477651157463,1.0762071790386383,1,0.5922790839347576,0.6438879023458858,1
35,B,1.0318445394686349,-0.32223677748699875,1,0.5885024729764357,0.6430214697368715,1
36,B,-1.485560373036972,-1.069430670498345,0,-2.377218775335979,0.08492645632848687,0
37,A,0.26705026586925884,0.38565338186830894,1,0.4984422949902442,0.6220931949735767,1
38,A,0.889630795623437,0.2949865178540158,1,1.0666227063358464,0.7439541175699059,1
39,A,0.08228398927542419,0.31503783857300127,0,0.27130669241922495,0.5674136678824934,1
40,A,1.0654803750653512,-1.542138063476488,1,0.14019753697945836,0.5349920878691986,0
41,A,-0.5172884501003722,-0.22310671532060522,0,-0.6511524792927352,0.34272987576658576,0
42,A,1.40934744018558,0.6761263769474573,1,1.8150232663540542,0.8599678862026602,1
43,A,2.2988981236192503,-0.03911774677928444,1,2.2754274755516795,0.9068214033222673,1
44,B,-0.36283856043965906,-0.7800030969881516,0,-1.08084041863255,0.25334700818768274,0
45,A,-0.4455025214007718,-0.04192356046197557,0,-0.4706566576779571,0.3844608333236917,0
46,A,1.453384477117701,1.363284413004393,1,2.271355124920337,0.9064767340311404,1
47,A,1.5795721457307124,0.9975133724277756,1,2.1780801691873775,0.8982637605847319,1
48,A,-0.5228600271532683,-0.0496032074928254,0,-0.5526219516489635,0.3652563103813234,0
49,A,-0.42018681709585726,0.7611594216464693,1,0.036508835892024305,0.5091261953071085,0
50,A,-0.2817846088605072,-0.2932056162944415,0,-0.45770797863717205,0.38752969567844714,0
51,B,-1.344450511034277,0.8498573079078685,0,-1.084536126289556,0.25264855709432826,0
52,B,-0.9186519464841982,0.279859357516202,0,-1.000736331974477,0.26879667435017846,0
53,B,-1.0041407667520679,1.143763960695894,0,-0.5678823903345315,0.3617255956709512,0
54,B,-0.7677975651041284,0.34454899824218904,0,-0.811068166158815,0.3076629226853392,0
55,A,-0.03468488738678118,-0.19470718350001448,0,-0.15150919748678987,0.4621949909239976,0
56,B,0.23421473253652075,0.43380423024732195,1,0.2444972706849139,0.5608216315164435,1
57,A,1.5505004928140769,1.5233092716584056,1,2.46448605580912,0.9216143550663706,1
58,A,-0.998354040738791,1.3007671322896508,0,-0.2178937613650005,0.445741064064006,0
59,A,0.9843223984765838,1.7750241867585073,1,2.049336910531688,0.8858806000703184,1
60,A,-0.21398884422550896,-0.12723616832004103,0,-0.29033054521753354,0.42792294605293724,0
61,A,-0.04946370965243295,0.23649959099767606,0,0.09243604494617268,0.5230925708543095,0
62,A,0.6748194921666038,-1.213314039536633,1,-0.05316893155537605,0.48671089758303987,0
63,B,-1.1227220215622986,-0.6584698892891537,0,-1.767803955135791,0.14581564118573076,0
64,A,0.3824097461840506,-0.9342236410143481,0,-0.17812443842455822,0.45558625944053976,0
65,A,0.1664522082130561,0.17342045101010328,1,0.27050447881911804,0.5672167495856807,1
66,A,0.4924512640081491,-0.8778420221062753,1,-0.03425394925561609,0.49143734990641225,0
67,A,0.2891686439078181,-0.47109346139095687,1,0.006512567073243991,0.5016281360137321,0
68,B,2.4553001399108942,-1.039409817857401,1,1.5816542491964536,0.8294386724325694,1
69,A,-0.637739984251316,-0.4863002085406543,0,-0.9295201093757085,0.28302208405222296,0
70,B,-0.5309969550018176,0.5126332342460218,0,-0.4734170144542046,0.3838078016432852,0
71,B,-0.6231405264247644,-0.7754727718125637,0,-1.3384241895123026,0.20776931945979665,0
72,A,-0.5554771191602547,0.6666671294242458,0,-0.15547684150570723,0.4612088997544806,0
73,A,-0.6373871273065177,-0.8838902344500161,1,-1.1677212679765274,0.2372671227531498,0
74,B,1.1890165311075518,1.1029850083320019,1,1.6008075361067529,0.8321312191834872,1
75,B,1.4205042479898549,1.200698781651574,1,1.8909235169807994,0.8688607935203658,1
76,B,-0.5707462937494763,-0.8047442508919739,0,-1.3035928442846605,0.21356096813184383,0
77,B,-0.8323555731042287,1.6709583600771944,0,-0.07978055705791198,0.4800654331363518,0
78,A,0.4714155563864041,-0.18441970014420067,1,0.3607637362998837,0.5892253004998108,1
79,A,-0.5522230442809712,0.9437801666885681,0,0.014045055732169631,0.5035112062138034,0
80,A,0.6329318177555108,0.15528610476268617,1,0.7261034806131225,0.6739496264984166,1
81,B,0.2029230208512997,-0.16117048976465737,0,-0.1437792730074947,0.4641169763825165,0
82,A,-1.515744114997232,0.3871013209504318,0,-1.2834833224269728,0.21695786843113013,0
83,A,1.5475052013300616,-0.8818337198691387,1,1.0184049694085784,0.7346617904213121,1
84,A,1.7958776730955217,0.5450876083543584,1,2.122930238108137,0.8931119811412765,1
85,A,-0.6127886904843862,0.32688584616141414,0,-0.4166571827875377,0.397316932992838,0
86,A,-0.38770155993598415,-0.2462467769111073,0,-0.5354496260826486,0.3692467486662824,0
87,B,0.28586539072490497,1.2390554452099887,1,0.7792986578508982,0.6855289389670842,1
88,A,0.334456789987025,-0.7093447378267659,1,-0.09115005270903453,0.47722825091116033,0
89,B,0.6585442726728304,-1.3091597162582378,1,-0.37695155708211225,0.40686235432414547,0
90,A,2.0102045387663496,0.9831844019912496,1,2.600115179961099,0.9308689920751873,1
91,A,-0.1769472274940494,-0.5098461976230358,0,-0.4828549460678709,0.3815781982981932,0
92,B,-0.7982972445384537,-0.2579052363464824,0,-1.203040386346343,0.23093479030311764,0
93,B,-1.3793192280145272,-0.3696411410228895,0,-1.851103912628261,0.1357433371152074,0
94,A,-0.7309300399419191,-0.46769418452575967,0,-1.0115465506573749,0.2666772974011896,0
95,B,-0.033126972873797095,1.57237049534353,0,0.6602953243323209,0.6593267258455403,1
96,A,1.7945578635177877,-0.7277467335854669,1,1.3579098233665075,0.7954197792373617,1
97,A,-0.5176112990361714,-0.7492050998316768,0,-0.9671343589351775,0.27545205358289515,0
98,A,0.2237879516388985,-0.534223645175109,1,-0.09674623546616687,0.4758322886741596,0
99,A,-0.016422896072752075,0.23375418266109854,0,0.12382961352390703,0.5309179061272431,0
100,A,1.188393273448084,-0.14986321472509975,1,1.0984753446130242,0.749974322110603,1
101,A,2.5269324258736217,-1.7905849866599777,1,1.452581433877635,0.8103954012751096,1
102,A,-0.5308687729203206,-1.696560122108053,0,-1.5488048461851522,0.1752589525411533,0
103,A,-0.48943944251822213,-0.48549214228574034,0,-0.7807347278896664,0.31416155698678144,0
104,A,1.044160877069072,0.36614926884284166,1,1.263850438374777,0.7796882271225458,1
105,B,0.6818914896263114,-0.03168690835071244,1,0.41287934461588394,0.6017780902983906,1
106,A,1.8467073257360336,-0.39978414092130454,1,1.606836841183251,0.8329717601486977,1
107,A,0.5839281853259639,-0.4209982852139369,0,0.3313292141976018,0.5820827599402194,1
108,B,-0.35929209078705954,0.5088732533569076,0,-0.303968138772915,0.42458772642029186,0
109,A,0.5906548306923093,-0.30801744937029096,1,0.4058443610701347,0.6000910172579255,1
110,A,1.1087035805829077,0.30639118779274277,1,1.2925382932585534,0.7845765117670387,1
111,A,0.820482181197364,0.11300571206997059,1,0.8882856084393465,0.7085362556724621,1
112,A,0.5072740311072977,-1.7044531838457606,1,-0.5153978792001587,0.3739289916139376,0
113,B,1.066674689589154,-0.5236630686318823,1,0.5024768484100246,0.6230412229798324,1
114,B,1.1692955904456728,-0.131531764710997,1,0.8403765316190746,0.6985445119868811,1
115,A,1.3821589910375272,0.4066149117396717,1,1.6261279380813303,0.8356385144303565,1
116,B,0.6487098875896427,-0.44401323585855323,1,0.13230194607451073,0.5330273252454116,0
117,B,-0.16711808031685435,-0.31055527520052284,1,-0.6034512454371681,0.3535545007155058,0
118,A,0.14671368643332283,1.3797573198088868,1,0.9745680783186549,0.7260290757370418,1
119,B,1.2065089665083568,0.6731033375294865,1,1.3603709690260488,0.7958199832873926,1
120,A,-0.8169356709872361,0.22986312352240745,0,-0.6790177968737916,0.3364805554004146,0
121,B,0.3686733088729012,0.8363452854128828,1,0.6204804801206308,0.6503278183869753,1
122,B,-0.3933388123273607,-0.4005833877072119,0,-0.8836888449516878,0.29241394322493974,0
123,A,0.028744822934817487,-0.455866342591007,1,-0.24477498261978672,0.43910996898727483,0
124,A,1.2784518626072987,0.2636069884584073,1,1.436616055682343,0.807930081235367,1
125,A,0.19109906801990334,-1.2137389573373434,1,-0.5371443063825028,0.36885213907916836,0
126,A,0.04643654815614881,0.6004633340174125,0,0.4067145485665963,0.600299828209269,1
127,B,-1.3598561409799192,-1.885051382482199,0,-2.740886970469239,0.060603387855198025,0
128,B,0.7462535660272207,-1.3521209626917663,1,-0.31501901158783907,0.42189013020442806,0
129,A,0.6454841811410754,-0.360010286396651,1,0.42947800930308483,0.6057490149870747,1
130,A,2.16325472330546,1.0057193734900582,1,2.766686347399495,0.9408488433239697,1
131,A,-0.30777823495300083,-0.42826806961297853,0,-0.5647390767207879,0.36245163948226455,0
132,A,0.21915032766393897,0.2867628945676962,1,0.3912080644045567,0.5965734823501881,1
133,A,0.24938368371075526,-0.5847650205723787,1,-0.10147532863267195,0.47465291453335595,0
134,A,1.5774532797634744,0.6063374799388956,1,1.9412557677268119,0.8744900378784991,1
135,B,-0.0952955323869521,-2.1612692809832867,0,-1.642057100976924,0.16218534682668348,0
136,A,0.27902152577033923,1.4788870666371292,1,1.1663537657526168,0.7624853094972414,1
137,A,0.6078965097165392,-0.14045115639937242,1,0.5236258158769157,0.6279952117195803,1
138,B,0.1866091231563581,-0.7450171179013392,1,-0.5104011475844454,0.3750994918825476,0
139,A,-0.44643361455052827,0.07845403163115565,1,-0.39936119557183486,0.40146582918691237,0
140,B,0.19408999289830758,-0.5665086932365528,1,-0.3958152230436241,0.4023181914544067,0
141,B,1.073631749859772,-2.375159772450945,1,-0.601464113610795,0.35400879913239475,0
142,A,-1.0265152994110602,0.5960042503018249,0,-0.6689127492299654,0.33874033716631385,0
143,A,0.132969674146876,-0.15575783689334535,0,0.03951497201086879,0.509877457787107,0
144,A,-0.7001208149391732,-0.0513505416867982,0,-0.7309311399512521,0.3249904284328543,0
145,A,1.1950466289248425,0.0734019875586983,1,1.2390878214600614,0.7754051964812931,1
146,A,-1.5231869047837747,0.20179231714134194,0,-1.4021115144989695,0.19748125976135886,0
147,A,-0.5589218472715883,-0.09298323449756654,0,-0.6147117879701283,0.3509851260700795,0
148,A,0.37721187506452086,0.1717705465364211,1,0.4802742029863735,0.617812621720655,1
149,A,1.5655240292343404,1.2624944460497476,1,2.323020696864189,0.9107657420503728,1
150,A,-0.0657502610729878,0.7883597484921747,1,0.407265588022317,0.6004320372752407,1
151,B,-0.5551995266931984,-1.4754595133429003,0,-1.6904752346989387,0.15571335236124728,0
152,A,1.8811570694405901,-0.3644316208190966,1,1.662498096949132,0.8405730578943165,1
153,A,-1.448013900416244,-0.7113926625826594,0,-1.8748494979658397,0.13298159174582672,0
154,A,-2.198805956620082,0.7642404465902023,0,-1.7402616886659605,0.1492796982578485,0
155,B,0.4400144500533324,3.173212016420442,1,2.0939416599055973,0.8903129442247001,1
156,A,-0.5020542243526112,1.1781365406007855,0,0.2048277000078601,0.5510286433400061,1
157,A,-1.0212328171307132,-0.48318450077538366,0,-1.3111435175959434,0.2122955551624592,0
158,B,0.7083564472993533,0.5612318061185197,1,0.7950955309704653,0.688924391357001,1
159,A,0.24380071377119883,-1.3115873300203473,1,-0.5431516842410096,0.3674547252421852,0
160,B,-0.5640786307367284,0.11757978416507452,0,-0.7435307602376837,0.32223254670603346,0
161,A,-1.2803043986708944,0.7972564084635578,0,-0.8019505535927598,0.30960843123163373,0
162,A,0.8724573282801447,-0.3731963033825584,1,0.6485395462506096,0.6566812773329446,1
163,A,0.650201177958661,0.5123838361606591,1,0.9576314796550565,0.7226473373721297,1
164,A,-0.09917586377938291,-0.15240248479824908,0,-0.19061735465833235,0.4524894322373422,0
165,A,1.8466369960476658,0.25924562257724854,1,2.002184369594015,0.8810262320715555,1
166,B,-1.0700847663261526,-0.44353240325236076,0,-1.586204208277569,0.16991860862430277,0
167,A,-1.5255251709247388,0.06816755970712085,0,-1.4846246351004664,0.18472991145183937,0
168,A,-0.6919080698812444,-2.392908776720579,0,-2.1276533359135916,0.10643797435038597,0
169,A,-0.045586016355497805,-0.1495169265295879,0,-0.13529617227325053,0.46622745857160214,0
170,A,0.24333944932269183,-1.3043785949721123,0,-0.5392877076605755,0.36835329516751736,0
171,A,-0.24123605785632987,0.9647956132374529,1,0.33764131008614184,0.5836174554215108,1
172,A,0.3520553965142968,0.621925882211609,0,0.7252109258412622,0.6737534647065507,1
173,A,-1.251539424190444,0.37333678557286487,0,-1.027537352846725,0.2635618181600237,0
174,A,1.4437646040732595,1.2168049817275042,1,2.173847593109762,0.8978763099446125,1
175,A,-0.0821511783925688,-0.7591332166598699,0,-0.5376311083884907,0.3687388186929912,0
176,A,1.1172958315881276,1.3978905583324466,1,1.9560301665875954,0.876102682818149,1
177,A,0.34272534637770413,0.7457532514083078,1,0.7901772972226888,0.6878693984667313,1
178,A,0.4567532191537839,-0.18924422977515684,1,0.3432066812886898,0.5849692532562113,1
179,B,0.5697672802322039,1.2672681708792621,1,1.0801281827597613,0.7465182399684687,1
180,A,0.44770856001731496,-0.8850348099293074,1,-0.0833123259402695,0.47918395737056646,0
181,A,0.6427227598675439,-0.6596113292221388,1,0.2469559623342606,0.561427118211913,1
182,A,1.3291525301324314,-0.48687177859176034,1,1.037029462977375,0.7382764324257561,1
183,B,0.19652116970147013,0.6253469140552059,1,0.3217293181345937,0.579745642319952,1
184,B,0.7090037575885123,0.7742587031400684,1,0.9235589794725534,0.7157667169678628,1
185,A,-0.08973569428722672,0.9784664536762601,0,0.49734417791852925,0.6218350004695262,1
186,A,1.4401172154494728,-0.20708352029586533,1,1.3158671032719536,0.788493278406914,1
187,B,-0.6763923020592697,-0.2368061043687913,0,-1.0684759646805446,0.2556930215739334,0
188,A,1.8009404329108156,-0.45628109313094445,1,1.527171777032249,0.8215921345229656,1
189,A,-0.04015795064434341,-1.4564826404388138,1,-0.9140475349076316,0.2861723009826164,0
190,A,-1.4307751021180481,0.21604588671313768,0,-1.3011475700901656,0.21397194614189055,0
191,A,0.12810441491078928,-1.5298039803358217,0,-0.7897779732907036,0.3122163448450611,0
192,B,-0.6810516574748808,-3.528466361597136,0,-3.0481314744331622,0.04529821164959106,0
193,B,0.8406435489887241,0.7870809318357131,1,1.0628921080901519,0.7432428428805858,1
194,A,-0.6526239793023909,1.5898207993846465,0,0.3012685003283969,0.5747525829390858,1
195,A,-0.4461834332147797,0.7290901777397774,0,-0.008729326570913298,0.4978176822151798,0
196,A,-1.889540730945531,0.08460303301718435,0,-1.8387789111352204,0.13719577261576235,0
197,B,-0.4523063192490767,1.3489352639832162,0,0.10705483914085301,0.5267381780559471,0
198,B,-2.4238793266289567,1.1370317545474293,0,-1.9916602739004992,0.12008132425547832,0
199,B,-1.5839028234857233,-0.9274532013883309,0,-2.3903747443187218,0.08390962126066655,0
200,B,0.7604146561442974,0.4884627445494421,1,0.8034923028739627,0.6907210225250774,1
201,A,0.7858001586508322,0.21121606506693602,1,0.9125297976909938,0.7135175585349204,1
202,A,0.42545756178496474,1.0178828000854143,1,1.0361872418362132,0.7381136621447926,1
203,A,-0.966976143129213,0.5859936822238418,1,-0.615379933794908,0.35083294123873987,0
204,B,-0.047711356141979855,1.0348721668593104,0,0.3232119439736063,0.5801068274470303,1
205,A,-0.0036025390905684044,-1.323909948982637,1,-0.7979485084801505,0.31046452374066813,0
206,A,-1.1583646891925428,-0.768037036223571,0,-1.6191869109266852,0.16531703563793537,0
207,A,1.5033983017671506,-0.09816714687657932,1,1.4444980136412031,0.8091502283762146,1
208,A,0.8773622905756714,0.07469789942132099,1,0.922181030228464,0.7154862971356053,1
209,A,-0.22096417382966393,-0.9041629797391391,1,-0.7634619616731474,0.317895109218481,0
210,A,0.02688583899453078,1.929341340462737,0,1.184490643272173,0.7657542724944384,1
211,A,0.20838280794755248,1.2131152442028583,0,0.9362519544692675,0.7183419483443589,1
212,A,-2.0417348684242906,0.4816946563139868,0,-1.7527180746358986,0.14770469724262275,0
213,A,-0.24717738252059693,0.05762948902699581,0,-0.21259968910439944,0.4470493689661877,0
214,A,-0.6819842479977986,-0.16976717592092136,0,-0.7838445535503513,0.31349188884107126,0
215,B,-1.0016200098949155,0.42173784904989947,0,-0.9985773004649758,0.2692212330104236,0
216,A,-0.2811002928859549,0.06198441481509003,0,-0.24390964399690088,0.43932310653410905,0
217,A,1.7976865268495226,0.20620203211420055,1,1.921407746118043,0.8722953334323276,1
218,B,0.6408428612670098,-1.0582495814732613,1,-0.24410688761694688,0.43927452239967263,0
219,A,-0.5711789897827968,0.26734113379591795,1,-0.41077430950524607,0.3987264707984803,0
220,B,0.5725827813561586,-0.8938831737677388,1,-0.21374712290448472,0.44676574491922183,0
221,A,1.3993554365860021,-1.526246046301913,1,0.48360780880485443,0.6185994436013647,1
222,A,0.9246336829127688,-0.6883080086236015,1,0.5116488777386079,0.6251929302851077,1
223,A,0.05963036992017413,-0.33088442673731544,1,-0.13890028612221514,0.46533065103620547,0
224,A,-0.6469367777055739,1.5101501258721524,0,0.25915329781771745,0.5644281422732479,1
225,A,0.6982233136135899,0.44524249962700657,1,0.9653688133897939,0.7241954423217026,1
226,A,0.3934853854217496,-1.0683852552799131,1,-0.2475457677461983,0.43842766120802595,0
227,B,0.8951932200277323,0.0014465704346690843,0,0.6460611622885337,0.6561223064750737,1
228,A,0.6351718016819695,-1.2378431911506924,1,-0.10753411300844595,0.4731423476578393,0
229,B,1.0495527153193351,0.791094802118886,1,1.2742095965906668,0.781462509742783,1
230,A,-0.535235211560568,-0.3768997214543029,0,-0.7613750444331497,0.3183478036565678,0
231,B,1.3173940656343257,-1.9290718372427689,1,-0.09004903671133557,0.4775029408352178,0
232,A,0.19759960469239965,1.060637318033752,0,0.8339819955126508,0.697196242914498,1
233,A,2.0752608726252655,-1.0297308548674,1,1.4574223597048255,0.8111381148033562,1
234,A,-0.6891878180895679,-1.117694548090393,0,-1.3598045469438036,0.20427207036315026,0
235,A,1.7359638031652493,-0.4668794610768039,1,1.455836126519167,0.8108949949285077,1
236,B,0.1979107834626478,-0.23259136652736423,0,-0.19164403645377073,0.45223509169874626,0
237,A,-0.6514180036144483,-1.215476860381474,0,-1.3807041198433327,0.2008959388252776,0
238,A,-0.48388583405432156,-2.265724478488455,0,-1.8433205211473946,0.1366590534761586,0
239,A,-0.32034730819432017,-0.36092708672719903,0,-0.5369035602306396,0.3689081866100956,0
240,A,0.4241659464019164,0.44139263992873634,1,0.6890015303591581,0.6657447754137155,1
241,B,0.5228354880354996,0.0719191563195939,1,0.31598698182725593,0.5783459387549555,1
242,B,-0.573700003938579,0.33285232554983,0,-0.623988608608681,0.3488748490741338,0
243,B,-0.02435459226098284,1.6327903150063812,0,0.7053195967428458,0.6693661381943645,1
244,A,2.1422703586118637,0.9231205874045978,1,2.6961427110546223,0.9367986500907243,1
245,A,1.7275431701007113,-1.4957933597563366,1,0.8300671542469094,0.6963691290489775,1
246,B,0.4363236696740321,0.22061945370443384,1,0.31869534189669235,0.5790062641075463,1
247,A,0.03800347816820029,0.1523391119400462,0,0.12940694533222802,0.5323066645368225,0
248,B,0.1200313267182613,1.4867356235273248,0,0.7620727008346562,0.6818035703225546,1
249,B,0.6135179727304166,0.2515912983295509,1,0.5144727517281472,0.6258544051534394,1
250,B,-1.0227925651984056,-0.5899634227584568,0,-1.6267706188534796,0.1642732344696595,0
251,A,-0.2573765374233451,-1.9906618827303917,1,-1.45177366706158,0.18972874700912476,0
252,A,-1.6685840738775894,-0.5265987298670787,0,-1.9845433117978366,0.12083535088539388,0
253,B,0.39922312260527926,0.5716293232274631,0,0.492200716541757,0.6206247277156934,1
254,A,0.647195939702741,-0.7858352274037437,0,0.17569480326049486,0.5438110596807,0
255,A,-0.483186462299374,0.047187377271677905,0,-0.45487403593636727,0.38820254720951763,0
256,A,1.5739867632900328,0.3574980006421584,1,1.7884855636753278,0.8567415018216328,1
257,B,-1.2257656630023412,0.4708991606145204,0,-1.193226166633629,0.23268243504332412,0
258,A,-1.4643748802098202,0.13637101679725672,0,-1.382552270131466,0.2005994067690788,0
259,A,0.22445181855997204,-0.7701860522276899,1,-0.2376598127766419,0.4408631334235046,0
260,A,1.0470983026121545,-0.16528902375683732,1,0.9479248883580521,0.7206976648874608,1
261,A,1.6839276914578687,0.48817293567137804,1,1.9768314528606954,0.8783429876713592,1
262,B,-0.45888426286894,-0.49113892573572476,0,-1.0035676183103748,0.26824056351761877,0
263,A,1.0786808334312956,-0.46922501565114844,1,0.7971458240406066,0.6893636144044968,1
264,A,-0.03850846950070721,0.17937312343263442,1,0.06911540455887344,0.5172719760888338,0
265,B,-0.17262729994081963,-0.9869039188586406,1,-1.014769651256004,0.26604746038043126,0
266,B,0.8836599374866724,1.3452368007893656,1,1.4408020179602916,0.8085788177899536,1
267,A,0.6523228784134196,0.9272592519647183,1,1.2086784295922506,0.7700650288631847,1
268,B,-1.5763921569842494,-0.011160385366337301,0,-1.8330883882040518,0.13787076915336127,0
269,A,1.4765403497258958,0.34039194659218425,1,1.6807755176812063,0.8430071951316047,1
270,A,1.3800913541474515,0.9577975389161824,1,1.954769877497161,0.8759658176499093,1
271,B,-0.6255627015095294,0.9901179176011616,0,-0.2814919509488325,0.43008804242499665,0
272,B,0.39580353343740904,-1.0405562588530803,1,-0.47853022187443917,0.38259925194456207,0
273,B,0.4940301862827388,-0.789739786890308,1,-0.22981368585144596,0.44279811381825346,0
274,B,0.2606737658239071,-0.3644712345319976,1,-0.20800897489529144,0.44818445013823327,0
275,A,-0.5503051538454201,1.3879492606694468,0,0.28246440255624794,0.5701503012200099,1
276,A,-0.6716233679380516,-0.6854176750614343,0,-1.0828739729749122,0.2529625293480541,0
277,B,-0.025554070991445278,-0.5714650482535908,1,-0.6184330999435997,0.3501379022085795,0
278,A,1.1727290192593647,0.16351122528238143,1,1.2708357544287936,0.7808857817196918,1
279,B,0.5436001545944323,0.31507359480230995,1,0.4826443114758183,0.6183720956953224,1
280,B,-0.37061433208610595,0.23230789364105323,0,-0.481229595901474,0.381961816132206,0
281,B,0.7716987106483447,1.0210775546015667,1,1.1343452434092847,0.7566399066476298,1
282,A,-2.8485426206300755,-0.266288323506009,0,-3.008315614733681,0.04705161214293239,0
283,A,1.1487657003721035,-0.07470948711995863,1,1.1039400081001283,0.7509976162788515,1
284,A,-1.7397137787780996,-0.4234656899586967,0,-1.9937931927533177,0.11985613877182673,0
285,A,-0.36244094140313216,-1.2115762473446137,0,-1.0893866898099003,0.25173378629302184,0
286,A,-1.1196698946261439,0.25727456907139085,0,-0.9653051531833093,0.2758172731204704,0
287,A,-1.2946814757209058,1.4039464573177933,0,-0.4523136013302298,0.3888108276206935,0
288,A,1.1608267873785194,0.014721304626750503,1,1.1696595701545698,0.7630834759197456,1
289,A,-0.46770120131189136,0.18021129379803963,0,-0.3595744250330676,0.41106258954244196,0
290,A,0.3465038817307158,0.5541782040934876,1,0.6790108041868084,0.6635178834007758,1
291,A,-0.04692057887918407,-1.0154643972373594,1,-0.6561992172215997,0.34159392077488515,0
292,A,0.47704082722312147,1.3620117265036846,1,1.2942478631253322,0.7848653162101666,1
293,B,0.07682189106025536,0.10638910915372492,0,-0.10934464344750969,0.47269104311299903,0
294,A,-1.2829922241885696,1.3054855192712873,0,-0.4997009126257973,0.37761095801524736,0
295,A,0.99626681944714,-0.5864263964191915,1,0.6444109815956252,0.6557498872322783,1
296,A,-0.4937565831613125,1.4544495380462599,0,0.3789131396664434,0.5936109387153086,1
297,B,-1.556581898659751,0.7389253797253699,0,-1.363226670824529,0.20371638417210286,0
298,A,-0.4281151609659125,0.4424320686818868,0,-0.16265591975678045,0.459425437232053,0
299,A,1.5007597906343109,0.18721956348251836,1,1.6130915287238219,0.8338401622236747,1
300,A,0.8502217421134929,-0.1988228944595595,1,0.7309280054377572,0.6750088839433716,1
301,A,-0.3486521344078592,0.9604253267790981,0,0.2276030616595996,0.556656394663176,1
302,A,-0.3492577043184288,0.11228789587843757,0,-0.28188496679136626,0.42999171204881076,0
303,A,-0.3216350512173826,-1.5736557628697219,1,-1.2658285089392156,0.21997217879276482,0
304,A,2.076747983560841,-0.893749169365602,1,1.5404984819414798,0.8235371781417123,1
305,B,0.38193545223155334,-0.6606442193899003,1,-0.2644510794023868,0.434269850799553,0
306,B,0.43004164719106963,-1.4648549110969904,1,-0.6988712994671246,0.3320625227578868,0
307,A,1.0302834540318422,-0.04527079111991667,1,1.003120979359892,0.7316717577365673,1
308,A,0.23878915902651351,0.9751766318349306,1,0.823895138127472,0.6950625436882071,1
309,B,-0.2590421458207031,-0.5438980908276161,1,-0.8353810003172728,0.302508489592439,0
310,A,-0.19634984908497827,0.11487034920412816,0,-0.12742763956250136,0.46818612741404053,0
311,A,-0.07160125941406395,-1.454383380309724,0,-0.9442312875998983,0.28004643511486943,0
312,A,-0.03722223650984159,0.6077698363873347,1,0.32743966532255925,0.5811362778808817,1
313,A,0.7276295436369798,-0.0755669715536022,1,0.6822893607048185,0.6642494673048107,1
314,B,0.05194588580729943,-1.3665997413369229,1,-1.0180139589948543,0.2654144377350835,0
315,B,0.7326400772155792,1.2469341449043223,1,1.2308005641581725,0.7739586610052346,1
316,A,-0.08071658010858232,1.0235719453262009,0,0.5334265870871382,0.6302819537881037,1
317,A,0.07863519031609059,0.8333797312470811,1,0.5786630290643392,0.6407597113537061,1
318,A,-1.9982006845321076,0.46683544240951014,0,-1.7180994190864016,0.15211613248643688,0
319,A,0.9163276747024814,-0.10361379749075261,1,0.8541593962080298,0.701438942206149,1
320,A,0.3464884758979927,0.46388582823610575,1,0.6248199728396562,0.6513139808773855,1
321,A,0.9980101098596522,-0.5655140543898791,1,0.6587016772257248,0.6589686779732035,1
322,B,-2.8962553781936893,-1.0824618652290123,0,-3.7957324973310964,0.021972792680165523,0
323,A,2.0883747047807275,1.319584715459137,1,2.8801255340562095,0.9468551808861613,1
324,A,-0.13958962815517376,0.856488447983349,1,0.37430344063483567,0.592498430688676,1
325,B,1.1081828167375165,-1.4272942714407935,1,0.0018062538730404532,0.5004515633454893,0
326,B,-1.0399059271255309,1.971207543907156,0,-0.10718140078123728,0.4732302721234989,0
327,A,0.6127739050625697,-1.0345132350069182,1,-0.007934035941581152,0.4980165014195193,0
328,A,-1.0534155631736561,0.4579122489405406,0,-0.7786682138093317,0.31460698743123855,0
329,A,-0.6237689606958051,0.3604827302900311,0,-0.4074793225217865,0.39951668605392515,0
330,A,1.9140313538667861,-1.4958530716257314,1,1.0165195108913472,0.734294088165506,1
331,A,-0.19068240076334658,-0.9294270751298911,1,-0.7483386458412813,0.3211834092875548,0
332,B,0.21743287317972287,-0.19535148728675306,0,-0.14977801919232897,0.4626253393228256,0
333,A,0.8700677306887542,-0.24068779771266102,1,0.7256550520611575,0.6738510804381262,1
334,A,0.49568188797260465,-0.9675815483350443,0,-0.08486704102842185,0.4787959649031986,0
335,A,0.15041890514357642,0.311182983481747,1,0.3371286952326246,0.5834928805120897,1
336,A,0.3649610024662254,0.20117888715240967,1,0.48566833475767124,0.6190854731393636,1
337,B,2.403415585238275,-0.2743198984080223,1,1.9888236461934619,0.8796186294004709,1
338,B,-0.05761879703358539,-1.1932192495302147,0,-1.0235503467517142,0.2643364131964202,0
339,A,0.2010990467149675,0.8389657011332509,0,0.7044784673949179,0.6691799570469951,1
340,A,1.050654396007612,1.3243256904706362,1,1.8452498102899937,0.863568411011869,1
341,A,1.1055259329579838,-0.3868491870772297,1,0.873416420711646,0.705456086477842,1
342,A,1.1870303055603801,-0.48973353372385664,1,0.8931901853260662,0.7095480758448928,1
343,A,0.6387302220291846,0.39296613232959704,1,0.8745099014269428,0.7056832473691048,1
344,A,-1.1430049127304835,-0.286423503797589,0,-1.314859015009037,0.21167489100808912,0
345,A,1.633431532301096,-0.11151776053058733,1,1.5665208759827436,0.8272870658749816,1
346,A,-1.146345393018688,0.5917225213797371,0,-0.7913118801908456,0.3118870527353622,0
347,A,0.30263546523903323,-1.5274848700058343,0,-0.6138554567644674,0.3511802185496453,0
348,A,-0.7542758500193579,1.0546418598821354,1,-0.12149073409007671,0.4696646198155863,0
349,A,-0.06413834659299254,0.058144419463473075,0,-0.0292516949149087,0.4926875976756936,0
350,A,0.3287624103034804,-0.3291945156497442,1,0.13124570091363388,0.5327644069644157,0
351,A,0.32135721545027307,-0.07138732337715914,1,0.2785248214239776,0.569184527215907,1
352,B,0.42192075423528475,0.023539989232787883,1,0.1860447477749575,0.5463774933943022,0
353,A,1.613711269058647,-1.3849610427559405,1,0.7827346434050828,0.6862691927195053,1
354,A,0.45353430151397983,1.1959505819625889,1,1.171104650691533,0.7633446284875806,1
355,A,-0.24415663529064868,0.03306050581649477,0,-0.2243203318007518,0.44415390038968644,0
356,A,0.9640871682883573,0.3544017043579002,1,1.1767281909030973,0.7643590139086056,1
357,A,1.1894704889246406,0.7612398164592342,1,1.646214378800181,0.8383787562896671,1
358,A,-1.2276078151369925,-0.8169299660482402,0,-1.7177657947659366,0.15215916728293258,0
359,B,0.597400069849858,-1.486928490784681,1,-0.5447570246209504,0.36708167262646346,0
360,A,0.7011727423108983,-0.21411287271903487,1,0.5727050186794774,0.6393871095136712,1
361,A,-0.29756350335999193,0.677416620173195,1,0.1088864687439251,0.5271947534812886,0
362,A,1.3757068133116195,-1.7017819362811963,1,0.3546376515429017,0.587741743741221,1
363,A,-0.15005558703252672,-0.0792754401930152,1,-0.19762085114833583,0.45075495100663654,0
364,A,0.12557645347154225,-0.4822565246271693,1,-0.16377746130475931,0.4591469109372915,0
365,B,-0.1730718242838696,-0.26784270556176615,0,-0.5837774476209293,0.3580638669727103,0
366,A,0.015579047581467534,0.3760353498945617,0,0.24120025751820454,0.560009412631229,1
367,B,-1.0962750868952018,-1.9210847741718187,0,-2.498925951398293,0.07593350912882604,0
368,B,-1.4400508825942944,-0.9941964297362952,0,-2.2865687404360715,0.0922414577878697,0
369,A,1.5945050632249722,-0.08853229484586356,1,1.541385686317454,0.823666072952396,1
370,A,-0.8469613483183278,-0.7173137818521665,0,-1.2773496174296277,0.21800171504910212,0
371,A,-0.9913923494563072,0.6735869563617016,0,-0.5872401756392862,0.357268336409497,0
372,A,-2.153390113603715,-0.2953657603579569,0,-2.3306095698184888,0.08861941838099473,0
373,A,-0.6389617476895022,-2.3255905754573134,0,-2.0343160929638904,0.11564677123947205,0
374,A,-1.3230897934074983,-0.2998576452974449,0,-1.5030043805859652,0.18197785856196227,0
375,A,1.642015160136369,-0.8308350566751779,1,1.1435141261312625,0.7583242524182572,1
376,A,1.0098170893426341,-1.3050206523687564,1,0.22680469792138036,0.5564593575319536,1
377,B,-0.6881503451777238,-0.45023565638872437,0,-1.2082917390109584,0.23000344760851504,0
378,A,2.2524358053443088,0.08752677746637605,1,2.304951871824134,0.9092863213523306,1
379,B,0.9817654869915943,1.5379725540045224,1,1.6545490193943078,0.8395049159790844,1
380,A,-0.32483138350862245,0.250547579091984,0,-0.17450283605343206,0.4564846596563891,0
381,A,-2.499405714873573,-0.4852027105725918,0,-2.7905273412171283,0.05783821219462547,0
382,A,2.2909425725907417,0.36472335613656215,1,2.509776586272679,0.9248243593171297,1
383,A,-1.389572466763596,-0.36727224817519344,0,-1.609935815668712,0.16659752491636606,0
384,B,-1.6453987469568918,1.3681788462255198,0,-1.07449143922158,0.2545498753892236,0
385,B,1.0225704320096403,1.8966488238820483,1,1.9105597263388692,0.8710820171351858,1
386,B,2.439752406339273,-1.2181130301934424,1,1.4588845882232073,0.8113620161793208,1
387,A,1.3842728185105182,-0.31193896524755627,1,1.1971094393619843,0.7680101697528895,1
388,A,0.5639091200523596,0.1264427919361055,1,0.6397747952140229,0.654702550982675,1
389,B,0.594754341665286,-0.28082383092837765,1,0.17626004310825938,0.5439512812400723,0
390,B,0.8534155587803077,0.5596300493356013,1,0.9391935883816684,0.7189367372506216,1
391,B,0.7589285897867651,1.1848014199069221,0,1.2198094417309184,0.7720300129724702,1
392,A,0.2811914239693758,0.4865969533479748,1,0.5731495959781607,0.6394896098964369,1
393,A,0.10420110395187607,-1.053705535957268,0,-0.5280222176224847,0.3709782923826921,0
394,B,-0.06259312789952241,0.18210959069848845,0,-0.20332737348042934,0.44934255990748917,0
395,A,-0.7539645888666763,-0.8017736151413799,0,-1.2350287579515042,0.22530248759584917,0
396,B,-0.28067507686677406,2.507446466033728,0,0.9737928027534626,0.7258748379899207,1
397,B,-1.6929568141953855,-1.9291932325416703,0,-3.1004727537203873,0.04308775852519423,0
398,A,-0.09833962679474989,-0.40112171750850933,1,-0.33901265729985547,0.4160493343296023,0
399,B,-0.9885911071509175,2.428327463075567,0,0.21840537069442267,0.5543853285627087,1
400,B,-1.103589317215771,0.008159813471997322,0,-1.3486934291325725,0.20608406223880907,0
401,A,0.17989415115347845,0.7827376896224281,1,0.6495367649269352,0.6569060661172738,1
402,B,1.3920022863445993,-0.4289345073725126,1,0.8846415819210918,0.7077831467092337,1
403,A,0.918316606002313,-0.8829358628242954,1,0.3885550883077358,0.5959348178859166,1
404,B,-1.570500603623177,1.6474181696118362,0,-0.8320497018560753,0.3032118460079866,0
405,A,-0.9896281365703375,-0.6241593032939702,0,-1.3641237185467197,0.20357090733643102,0
406,B,0.9407711879882159,1.8401204415555905,1,1.7948434529215702,0.8575200720271787,1
407,A,-0.9824873935383096,-0.9574309171410493,1,-1.5569459438229392,0.1740853210815633,0
408,A,-0.2246331499970246,0.7149581515112887,0,0.2043417409097486,0.5509084159862674,1
409,B,0.5500520990245519,-0.5150933043583942,1,-0.009003883590484596,0.4977490443094247,0
410,A,-0.9683444548636353,1.4636961613728698,0,-0.09012675803991343,0.4774835498731261,0
411,A,0.1053755061459599,-0.3277492741035979,1,-0.09127405831619882,0.4771973139001942,0
412,B,-1.3340254949182044,0.5546071992983314,0,-1.2512611753392056,0.22248189968919072,0
413,B,-0.6013676439512137,2.429171547944223,1,0.6061352848153201,0.6470587050594038,1
414,A,0.31978193414253697,-0.49411334154695735,0,0.023313929214362594,0.5058282183171756,0
415,A,-1.5929937335316693,-1.228032198025888,0,-2.329813052347202,0.08868377100781476,0
416,A,0.440474737960399,-1.504008027126211,1,-0.46193007831532756,0.38652805562918463,0
417,A,-0.019637798926681216,0.570169623089065,1,0.3224639749267578,0.5799246240716708,1
418,A,0.5524899544171478,-1.506520166446867,0,-0.3514221454509724,0.4130375970499716,0
419,A,0.22391413406466143,-0.2978552423503383,0,0.04520098865445846,0.5112983235677184,0
420,B,1.3641404299738442,0.5854467418452888,1,1.4654084750810175,0.8123584934986535,1
421,B,0.12522450264790727,2.1652177317440917,1,1.1743551416943623,0.7639313256796663,1
422,B,-0.429405541125253,-0.2290845500727584,0,-0.816856271168908,0.3064313934518355,0
423,A,0.12229750303228377,0.17783188464068325,0,0.22899663381669372,0.5570002872019939,1
424,A,0.5432980290363879,1.0230926506507145,1,1.1571536194268166,0.7608151279982475,1
425,A,0.04886007032570433,-0.7618531045910376,1,-0.40825179242891824,0.3993313825182895,0
426,A,0.04059169120388238,-0.5415961107668251,0,-0.28436597525621266,0.42938372566671784,0
427,A,-0.7019916878067554,-0.6181275562166593,0,-1.0728682215367509,0.2548580105206319,0
428,B,-0.6629009175509482,0.426736018542792,0,-0.656859306425273,0.34144547727998603,0
429,A,-1.4026052717996935,0.7203188707160509,0,-0.970413949370063,0.27479800100945345,0
430,A,1.7495767431869393,0.36098025545480655,1,1.9661648964598233,0.8771985883880958,1
431,A,-1.243863235391285,0.9467949335119423,0,-0.6757862752841197,0.3372024102182417,0
432,B,-0.6929051977959073,0.7254183916264401,0,-0.5076541628200433,0.3757436053253372,0
433,A,-0.7184072655691974,1.3337792892409097,0,0.08186030797534838,0.5204536564191171,0
434,A,0.8949243769444413,1.2185908973698067,0,1.6260789153663253,0.8356317812071432,1
435,A,-0.2949496782920278,0.5884975977965974,0,0.058148880385930635,0.5145331252652066,0
436,B,1.2477420726737338,0.3190538755824582,1,1.1891743980232088,0.7665933734552718,1
437,A,-0.6734906242438685,-1.3252985661422192,1,-1.4686697639292001,0.1871448875018114,0
438,B,0.27899416222380197,-0.07935913755098695,1,-0.0186213203067902,0.495344804439665,0
439,B,-0.8353470532597573,2.5196661469998185,0,0.42645263494013363,0.6050262730408241,1
440,A,2.1451491277733883,0.5771834590058746,1,2.491459203176913,0.9235409052128051,1
441,A,-1.1875984190295128,-0.8401125916817165,0,-1.6916659740385427,0.155556873952337,0
442,B,0.3098207102270275,-0.777050166762191,1,-0.40640938983028707,0.3997733938015378,0
443,A,0.6337768809320985,1.0964289151973707,1,1.291634230050521,0.7844236711192744,1
444,A,0.41379909745149823,0.5561623200671995,1,0.7474964894918179,0.6786329522450301,1
445,B,-0.1852876588777083,-0.7792476459857112,0,-0.902836246469135,0.2884679967572793,0
446,B,-0.12982069973342616,1.5855648387276144,1,0.5715182035031425,0.6391134188306565,1
447,B,0.0438114719791096,1.7035236054163645,1,0.8159256352289284,0.6933707817578848,1
448,B,-0.14700200162848862,-0.7205082788864462,1,-0.8293069689603563,0.3037916278829341,0
449,A,0.9638791167949097,0.623479203124266,1,1.3379666386694693,0.7921553570387615,1
450,A,2.2105230015913513,-0.031215615502035294,1,2.19179363229013,0.8995101520148683,1
451,B,-0.5574917850078336,-0.8215557909120047,0,-1.3004252595550363,0.2140934551704085,0
452,A,-1.3698029795790778,-1.6206462984891017,0,-2.3421907586725386,0.0876884974536539,0
453,A,-0.08828204835125482,-0.8566819349475511,0,-0.6022912093197855,0.3538196762993652,0
454,B,2.5797093376543185,1.071116805959171,1,2.972379421229821,0.9513106072114741,1
455,A,-0.8036745679697308,-1.0243644568019734,0,-1.4182932420509147,0.1949292888388791,0
456,A,1.6391168054440675,0.15158385697686452,1,1.7300671196301862,0.849421005389181,1
457,A,1.6777008140764407,0.8059551785561588,1,2.161273921210136,0.8967175925898767,1
458,A,-0.5535882417079946,-1.003938134401834,0,-1.155951122349095,0.23940376559654739,0
459,A,0.5689830791852754,0.14776837982486665,1,0.6576441070801954,0.658730971393681,1
460,A,1.628396623128538,0.7503324300085241,1,2.0785960811336524,0.8888053591539389,1
461,A,-0.3791277409874871,0.009999457525800268,0,-0.3731280664720069,0.4077853872221692,0
462,A,-0.20358036010236177,2.2947224445334147,1,1.173253106617687,0.7637325265896643,1
463,B,-0.5816809139486437,2.3717287014185824,0,0.5913563069025057,0.6436762849301173,1
464,A,-1.0147567306928669,0.8469828239071031,0,-0.506567036348605,0.3759986365143254,0
465,B,-0.6492775450660071,1.9406550899623487,0,0.2651155089114021,0.5658933788068183,1
466,A,-1.2239402667622565,0.6175361238693401,0,-0.8534185924406525,0.2987162218091248,0
467,A,0.03408346825922607,0.3530457213593967,1,0.24591090107486407,0.5611697797207041,1
468,B,-0.7699732310586418,-1.5963763508867876,1,-1.9777990415907143,0.12155365694698808,0
469,A,0.2337859117907477,0.1831971139674722,1,0.34370418017123106,0.5850900310393274,1
470,B,-1.5558956462036273,1.1059801343093512,0,-1.1423075656180166,0.24189694113004936,0
471,A,0.33088023221445706,0.48259800045711504,1,0.6204390324887261,0.6503183930726346,1
472,B,0.8335289616089246,1.813385916296817,1,1.671560511387015,0.8417837669471557,1
473,A,-1.9937356425714554,0.510928134914482,0,-1.6871787616227663,0.15614722083041527,0
474,B,0.37405656984757213,-0.014506737415265472,0,0.11535252739841284,0.5288061971659723,0
475,A,1.2276689924732922,0.2940958721677687,1,1.4041265157739535,0.8028378878478947,1
476,B,-1.2096410186912054,0.43635825914996146,0,-1.1978260632012285,0.23186217350784374,0
477,A,1.6725723868377034,-0.7048546693290338,1,1.2496595852402832,0.7772409281876953,1
478,A,0.4190190093660452,-0.5697766109192408,1,0.0771530428145007,0.5192786984667062,0
479,B,-0.7050118557584089,-3.125056627952561,0,-2.8300458325299456,0.05572198630719788,0
480,A,-0.05576907765770601,1.1490683245647828,0,0.6336719170811637,0.6533215913747218,1
481,A,0.5583269125217224,-0.19048834904964326,1,0.44403390309193647,0.6092198082231528,1
482,A,0.0760053914124115,0.0368021978026193,0,0.09808671009398308,0.5245020361597749,0
483,A,0.5387559924463692,-0.7236914999950129,1,0.10454109244936144,0.5261114967452738,0
484,A,-0.9206735930793662,0.9382054762139559,0,-0.3577503073509928,0.411504261973105,0
485,A,0.169360824036078,0.532333458953423,1,0.4887608994081318,0.6198144884980903,1
486,B,-1.4137144969049802,1.43100901497357,0,-0.8051090879208382,0.3089336975185044,0
487,A,-0.11122606134870032,-0.7026584617437912,1,-0.532821138394975,0.36985914299495254,0
488,A,-0.9039076414647897,-0.3024063192145738,0,-1.085351432993534,0.25249464416114287,0
489,B,-0.7355299425897666,-0.6050157972092057,0,-1.3485394209152899,0.206109261190775,0
490,B,1.2360931752104374,-0.09782720772197506,1,0.9273968505772523,0.7165468646089024,1
491,A,1.091310120594269,-0.17253411003810587,1,0.9877896545714056,0.7286511167364644,1
492,A,0.609138120907177,-0.6983688723629604,1,0.19011679748940075,0.5473865554084791,0
493,A,-1.092312764672579,0.705126023138857,0,-0.6692371507892648,0.33866767653658386,0
494,A,-0.3164084496948019,0.5769082900364654,0,0.029736524327077296,0.5074335833209318,0
495,A,1.2130976999791834,-0.73301928045098,1,0.7732861317085954,0.6842313209361871,1
496,A,0.14171691363990474,1.0843542408843967,1,0.7923294581705427,0.688331291441596,1
497,A,2.319329539981694,0.936158967357283,1,2.881024920396064,0.9469004202245582,1
498,A,0.39331783939437187,0.10743719779823431,0,0.45778015807331246,0.6124874360027213,1
499,B,0.1920491164900316,0.7995750010910543,1,0.4217941171446642,0.6039124865320312,1
500,B,-0.3091164642025014,0.5551095514247414,0,-0.22605073334765657,0.4437267381424494,0
501,A,0.1335409047822823,-0.6893624562050066,1,-0.28007656894072164,0.43043500426481573,0
502,A,-0.1524698363805439,0.02402518333126574,0,-0.13805472638178445,0.4655410307938995,0
503,A,0.7081086766885905,-1.7219068356873444,1,-0.3250354247238161,0.4194490688254103,0
504,B,0.9567023167945841,-1.177398637367618,1,0.000263134374013263,0.5000657835931237,0
505,A,-0.7859894605079495,-1.2491945779534877,0,-1.535506207280042,0.17718948985043093,0
506,A,-1.331232953557778,1.2027358627431992,0,-0.6095914359118585,0.3521524025435638,0
507,B,-1.8362053731032966,0.9400686111391146,0,-1.522164206419828,0.17914305006264652,0
508,B,0.5079913269125437,-0.3018466632533948,1,0.07688332896050676,0.519211369897592,0
509,B,-1.1033666061738736,-0.7170122336299699,0,-1.7835739463518556,0.1438623848935325,0
510,B,-2.152890592952483,1.706843834038209,0,-1.3787842925295575,0.20120431866878963,0
511,A,0.3885786045309641,1.1348250761184293,1,1.0694736502020217,0.7444968057639085,1
512,A,2.4929995174327906,-1.9902469252280637,1,1.2988513622959523,0.7856416057293568,1
513,B,-0.006070911539893324,0.10238177107802886,0,-0.194641848893076,0.45149258493321226,0
514,B,0.8384907744516419,-0.9699188659691116,1,0.006539454870174932,0.5016348578913953,0
515,A,0.08182935854756501,-0.9656173182857725,1,-0.49754103242389847,0.37811870907697787,0
516,A,-0.09888965319114267,-0.8602499144393904,0,-0.6150396018547768,0.3509104554963177,0
517,A,0.9190764829877686,1.3411144217665625,1,1.723745136047706,0.8486106048225122,1
518,B,-0.29027454418865134,1.6819183115357152,0,0.4688764427327776,0.6151177910024831,1
519,B,0.26739231407190295,0.780540111043367,0,0.4857163806979231,0.619096803203308,1
520,A,0.3216978061960136,0.9098516338917835,0,0.8676087865310836,0.7042478927308645,1
521,A,-0.6680904536430488,0.2708423010287314,0,-0.5055850730258099,0.37622905638343757,0
522,A,0.9920423495365228,-0.7503404612291191,1,0.5418380727990514,0.6322398966249705,1
523,B,-0.17495975669540864,-0.46076552634282186,0,-0.7014190725011018,0.3314976763172016,0
524,B,-0.7557451594928447,0.3002402475020334,0,-0.8256010109916248,0.3045760158854414,0
525,B,0.5365098435704035,2.3948009877407572,0,1.7233904362148578,0.8485650306709143,1
526,A,-0.8984679817910373,0.8490967718985069,0,-0.38900991865193313,0.4039556653347826,0
527,A,0.028181157369128247,0.4256049590575545,0,0.2835441328036609,0.5704149002920509,1
528,A,-0.009118996644203544,0.2893288489976133,1,0.16447831275436442,0.5410271272314662,0
529,A,1.085895565831578,1.408950499893899,1,1.9312658657679176,0.8733894658783802,1
530,B,0.4746982328799528,1.0651865110486032,1,0.8638101395091147,0.7034560865162032,1
531,B,-0.025026958745143917,-0.38480115066863,0,-0.5059076491463219,0.3761533569994055,0
532,B,0.8177662992002871,2.1542536270947865,0,1.860318475457159,0.8653340646364258,1
533,B,1.3902075490173134,0.27608491102968247,1,1.305858495635123,0.7868193071364468,1
534,A,0.5578103063518622,-0.8118075945486818,1,0.07072574962265321,0.5176740706840862,0
535,B,0.010352619843380607,0.7991091024653536,0,0.23981808132259275,0.5596688177820088,1
536,B,-1.3118362323501596,0.5059039327373468,0,-1.2582938727077515,0.22126773234493408,0
537,B,-1.0651136630753726,1.0067286005635345,0,-0.7110765027372519,0.3293610160868229,0
538,A,-0.30522470435466764,-0.7858428643018517,1,-0.7767304229357787,0.31502498220952047,0
539,A,-0.6095122021592831,0.8974862849843768,0,-0.07102043116865708,0.48225235136364786,0
540,A,-0.186971302985446,1.8560325776138076,0,0.9266482435828385,0.7163947923020401,1
541,B,0.056649924897107164,0.5274014767442716,1,0.12309081094367014,0.5307339075215014,0
542,A,0.5296927543567308,-0.7232546317888002,1,0.09573997528345068,0.5239167279323802,0
543,A,-0.07049877805909122,-1.2391684200427802,1,-0.8139998300847593,0.3070388117267152,0
544,A,0.4865016438262019,0.2063807849769447,0,0.6103301148123688,0.6480161020540576,1
545,A,0.06447441481012024,0.8831018746530062,0,0.594335539601924,0.6443593003106336,1
546,A,-1.9754665663538713,0.3801341971963053,0,-1.747386048036088,0.14837719717483144,0
547,A,-0.9393353938187543,-0.0019230727350830754,0,-0.9404892374598042,0.2808015294904438,0
548,A,-0.14408755572161547,-0.471417321431445,1,-0.42693794858048245,0.3948577577232555,0
549,A,-1.2096947428411076,-0.8737309061744718,0,-1.7339332865457906,0.15008516042784883,0
550,B,0.5999287299962045,1.0189225328917728,1,0.9612822497312683,0.7233784594195567,1
551,A,1.5307508323436974,0.7310172971084685,1,1.9693612106087786,0.8775424843541464,1
552,B,1.2187618516973167,-0.08591910222968019,1,0.9172103903595086,0.7144733626978511,1
553,A,-0.213442870930208,1.2718711825445472,1,0.5496798385965204,0.6340613079286727,1
554,A,1.490726136849952,0.45925697671520105,1,1.7662803228790727,0.85399448274618,1
555,B,0.14866745720211155,1.0684597962237434,1,0.5397433349363576,0.6317527088810756,1
556,A,-0.33708597111803934,-1.0737021987880921,0,-0.9813072903908946,0.27263246569796923,0
557,A,-0.6134026635409398,-1.0926593243323512,0,-1.2689982581403505,0.2194287820003299,0
558,A,-0.30246968648812833,-0.11917544781383754,0,-0.37397495517643087,0.40758088257675956,0
559,B,-0.38817681854122876,0.008475790353811742,0,-0.6330913443289417,0.3468099156956545,0
560,A,0.1704162223754877,1.437088658341571,1,1.0326694173804303,0.7374330906768154,1
561,B,0.1605739810498646,0.8385941042430417,1,0.41373044359568967,0.6019820310182229,1
562,A,0.0030460201534144695,-0.19414502144962667,1,-0.11344099271636153,0.47167012640206846,0
563,A,0.43693816974634986,-0.8210953661327137,1,-0.055719049933278364,0.4860738402744248,0
564,A,1.1906462747863413,0.9840004581753201,1,1.7810465496915335,0.8558260454933868,1
565,A,0.9495541354413237,-0.7717643406005719,1,0.48649553108098065,0.6192805222348474,1
566,A,-1.4848979684499035,1.3027748438178575,0,-0.703233062159189,0.3310958065173732,0
567,A,-2.553921134901955,-0.22750771968520747,0,-2.690425766713079,0.06354067911870992,0
568,A,0.9343199112392737,1.2724656580942804,1,1.6977993060958418,0.8452470930338145,1
569,B,-1.366878698415421,0.8321746942967924,0,-1.1175738818373457,0.24646158081393055,0
570,A,-0.22476540189268354,-0.10959639155396661,0,-0.29052323682506354,0.42787577485884354,0
571,A,-1.1701130260593595,-0.4155170974609013,0,-1.4194232845359003,0.19475201030286035,0
572,B,-1.8019804375800197,0.740407139492037,0,-1.6077361538847974,0.16690315611297646,0
573,A,0.541462728204788,0.34265335390019,1,0.7470547405449021,0.6785366034972427,1
574,A,0.7591551603026468,0.06172519697417339,0,0.7961902784871508,0.689158955504787,1
575,B,-0.5765104007267194,1.4543327824636805,0,0.04608926875148878,0.5115202779589972,0
576,B,-2.59104229214491,0.31350063748062723,0,-2.6529419096565334,0.06580791783009175,0
577,A,-0.5462444482524828,0.06286162377531984,0,-0.5085274739872908,0.375538783392868,0
578,B,0.3918040054025465,0.17206616081070128,1,0.2450437018889673,0.5609562134442693,1
579,A,-1.4789115687741288,0.366534491830959,0,-1.2589908736755533,0.22114765660983918,0
580,A,0.18335991977915564,-0.7837769797734455,1,-0.2869062680849116,0.4287614319970342,0
581,A,-0.015309849172995557,-0.9226659225645961,1,-0.5689094027117533,0.36148851254798287,0
582,B,0.5792914996010884,-1.6232043430122414,1,-0.6446311062062564,0.344200423107674,0
583,A,0.11958036841415326,-1.4351139982943124,1,-0.7414880305624341,0.3226788381850657,0
584,A,-0.9730689408815555,-1.0843580024898314,0,-1.6236837423754542,0.1646974634558305,0
585,A,1.1965715016644913,-0.5672167661043924,1,0.8562414420018558,0.7018747861818029,1
586,A,-0.15852957302697002,1.5626073100212547,1,0.7790348129857828,0.6854720567674263,1
587,A,-0.02730453950993186,-0.4207037407161631,0,-0.2797267839396297,0.43052075989030897,0
588,A,-0.933267959073196,0.14220008501442508,0,-0.847947908064541,0.29986350773786113,0
589,A,-0.4432822511915103,0.32038510920506297,0,-0.2510511856684725,0.4375647834271394,0
590,A,-0.8848027140269009,0.10485214897267899,0,-0.8218914246432936,0.3053623105069911,0
591,A,-0.172946059923423,-0.06195476858079492,0,-0.21011892107189994,0.44766268572266127,0
592,A,1.7117084801423434,-0.9562350108793958,1,1.1379674736147058,0.7573062692925655,1
593,A,-1.3719011429313563,1.1607420386233696,0,-0.6754559197573347,0.33727624763954817,0
594,A,-1.6135613978767411,1.4457573149103082,0,-0.7461070089305563,0.32167015512808345,0
595,B,1.4711703274936085,1.340878579082953,1,2.0256974749433803,0.8834688562330618,1
596,A,-0.20932367715186612,-0.8192228727091037,1,-0.7008574007773283,0.33162215846239806,0
597,A,-0.6690727386599166,-0.2238482739016049,0,-0.8033817030008795,0.30930260492554396,0
598,A,1.0399046873960764,-0.771630235928153,1,0.5769265458391846,0.6403598983795761,1
599,A,-0.6056155397368641,0.4047724427646922,0,-0.36275207407804877,0.4102935300422151,0
600,A,1.8260097135469362,-0.5826177619252905,1,1.476439056391762,0.8140341186120381,1
601,A,0.6779258713392691,1.732044854245282,1,1.7171527838864382,0.8477617333087588,1
602,A,-0.48791140814570266,0.9524388754748769,0,0.0835519171392235,0.5208758363139798,0
603,A,2.1573082132655035,0.17005922450577193,1,2.2593437479689666,0.9054534659090542,1
604,A,-0.6057149230033384,0.8215890106557858,0,-0.11276151660986694,0.47183945334651717,0
605,A,0.742095372009307,0.8847203394858472,1,1.2729275757008152,0.7812434886806061,1
606,A,0.2992925804064919,-0.4511579904465946,1,0.028597786138535197,0.5071489593198159,0
607,A,1.301741289398798,-0.6529737956335718,1,0.909957012018655,0.7129913660011058,1
608,A,1.5615111967268527,0.06251445037571796,1,1.5990198669522835,0.8318813534403927,1
609,A,0.032004149065766624,0.6893088995983553,1,0.4455894888247798,0.6095900851412525,1
610,A,-0.7534178703461835,0.11124831892273412,0,-0.686668878992543,0.33477450692308014,0
611,A,0.4599721429391164,-1.261597185752798,1,-0.29698616851256227,0.4262944041211997,0
612,B,-0.6777153697521061,-1.115413032230892,0,-1.5969631890906413,0.16840647912852216,0
613,A,2.013387247526623,-0.05917829087550243,1,1.9778802730013216,0.8784550165436152,1
614,A,0.13653533108273744,-0.06053248346066421,0,0.1002158410063389,0.5250330127640023,0
615,B,-0.3653215513121087,-0.10012556374843302,1,-0.6753968895611685,0.3372894422536081,0
616,B,0.1846803058649084,-1.739574263638236,0,-1.1090642523180332,0.24804538200877183,0
617,A,-1.3471262895296965,0.4044713934686997,0,-1.1044434534484766,0.24890825123892463,0
618,A,-0.9716140385106515,1.1912904866626317,0,-0.2568397465130725,0.43614072657556163,0
619,B,1.2004139079444254,0.24872079527873275,1,1.0996463851116651,0.7501938429528157,1
620,B,-0.6568942789713957,0.08321320444350051,0,-0.8569663563052954,0.2979735501875367,0
621,A,-1.0469109826819396,0.39314356217615987,0,-0.8110248453762436,0.30767215036827456,0
622,A,0.5366527525272862,0.4558082857589176,1,0.8101377239826367,0.6921388516711328,1
623,A,1.185704154662997,0.15638538524263268,1,1.2795353858085765,0.7823706784300809,1
624,A,0.7189533106650667,-0.07907616099144485,1,0.6715076140701999,0.661840656975622,1
625,A,0.9960476858058164,0.34878031160003675,1,1.2053158727658384,0.7694690975324974,1
626,A,-0.7567950885694608,-2.0257968681757483,0,-1.9722732094749098,0.12214493125455182,0
627,A,-1.4218106667418438,0.545655592050105,0,-1.0944173115117808,0.25078738282536744,0
628,B,1.5013336519554867,0.9956789014550094,1,1.8487409928284926,0.863979213350939,1
629,A,-0.32267983884213575,-0.17797991742261232,0,-0.4294677892957031,0.3942534257285563,0
630,A,-0.25083301645504735,1.6374897565756463,1,0.7316608374903404,0.6751696260734831,1
631,B,1.328194141849058,0.9825331725058327,1,1.6677140453525574,0.8412708060296382,1
632,B,0.5562300094006599,1.8455183020950634,1,1.413540990657698,0.8043238501319783,1
633,A,0.45588777208160763,1.5932426417637873,0,1.41183335713988,0.8040549511509834,1
634,A,2.165002344901084,-0.6656490438798853,1,1.7656129185731528,0.8539112458384465,1
635,A,-0.643518230380143,-0.4400922263492311,0,-0.9075735661896817,0.2874966171639507,0
636,A,0.9278401280812372,-0.11762033874467999,1,0.8572679248344292,0.7020895296761875,1
637,A,0.0570131248970845,0.6725875857036394,1,0.46056567631926815,0.6131483617038135,1
638,A,0.26859227886325693,0.16624200588265073,0,0.36833748239284736,0.5910571945668324,1
639,A,1.5284684264125317,-1.0341002777218102,1,0.9080082597794455,0.7125924182501645,1
640,A,0.5078357562896237,-0.42573485050175164,0,0.25239484598857276,0.5627658660664836,1
641,A,0.538296079049633,-0.4858835465697691,1,0.2467659511077715,0.561380331826971,1
642,A,1.0725073373098022,-0.06177683617843646,1,1.0354412356027403,0.7379694321209542,1
643,A,-0.3649527295428853,0.3406749269038633,1,-0.16054777340056733,0.4599490477842118,0
644,A,-0.8392096673390064,0.3345646047103777,0,-0.6384709045127798,0.34559227526305786,0
645,A,-1.0448091940210336,-1.4208094032387217,0,-1.8972948359642667,0.13041495200983103,0
646,B,-1.9663565893760018,0.6171057072214018,0,-1.8460931650431607,0.13633225707171134,0
647,A,2.056207129940322,0.2020550767972988,1,2.1774401760187017,0.8982052592745627,1
648,A,-1.1032083657216831,1.107625638075125,0,-0.4386329828766081,0.3920667502316276,0
649,B,-0.221253623585772,1.3492240318446032,0,0.3382807955209899,0.5837728472611048,1
650,A,-0.27681329988892067,0.8810583661886098,0,0.25182171982424517,0.5626248373175092,1
651,A,0.30740669780910074,0.37323624916010156,0,0.5313484473051617,0.6297975609421896,1
652,A,0.8157372125392968,1.0769806049621986,0,1.461925575516616,0.8118270098839937,1
653,A,0.8604734883597454,0.41780050881422287,1,1.111153793648279,0.7523441516605905,1
654,B,-0.5830774385689385,-0.209225109483403,0,-0.9586125042589803,0.27715608062219227,0
655,A,-0.1671217137864115,1.8179477763575056,0,0.9236469520280918,0.7157846141804022,1
656,A,0.28257995048829965,0.7112296978239137,1,0.7093177691826478,0.6702503942162684,1
657,A,-0.24869112618354708,0.45899553680353056,1,0.026706195898571233,0.5066761521817542,0
658,A,1.6073455760199926,-1.0210435332306689,1,0.9947194560815913,0.7300190948072899,1
659,A,0.49097495163825133,-1.0306460939708302,1,-0.1274127047442467,0.4681898460045055,0
660,A,0.7348777860498175,0.23417238571348273,1,0.8753812174779071,0.7058641823973076,1
661,A,0.6628812686674127,0.11641695821459264,0,0.7327314435961683,0.6754043826480716,1
662,B,1.173473857485325,1.6577448944285837,1,1.9181207941424754,0.8719287312357114,1
663,A,0.18102155870370695,0.112786159689648,1,0.24869325451749574,0.5618548401962975,1
664,A,-1.2968319479558466,1.2709015424348769,0,-0.5342910224949204,0.3695166324529079,0
665,A,0.3996879517526416,0.556321979640239,0,0.7334811395367851,0.6755687193470744,1
666,A,-0.651356893791829,-0.9128068078021907,0,-1.1990409784731435,0.23164586503158005,0
667,A,-0.5286166817497568,-0.08920706171435497,0,-0.5821409187783698,0.35844011720521346,0
668,A,0.5863640187550933,-0.6439731846820487,1,0.19998010794586407,0.5498290736945334,0
669,A,1.2382830714336357,-0.310159933126849,1,1.0521871115575263,0.7411946634170405,1
670,A,0.02127157673606165,-0.3308925325037142,1,-0.17726394276616686,0.4557996941021502,0
671,A,0.3088330125989638,-0.38211646608320415,1,0.0795631329490413,0.5198802970029296,0
672,B,1.702214944635238,-0.9981866498765336,1,0.8533029547093178,0.7012595532753227,1
673,A,0.24075317948856828,-0.1021237452145521,1,0.17947893235983703,0.544749671934791,0
674,A,2.601683114180395,-0.448486109477848,1,2.332591448493686,0.9115405196150875,1
675,A,0.5655096456315442,-2.3435589520018145,1,-0.8406257255695445,0.30140301532831576,0
676,B,-1.7607627591558177,1.7846953864031128,0,-0.9399455273139501,0.28091134594368383,0
677,A,0.7533416211045325,0.8710157233733377,1,1.2759510551285351,0.7817597682610116,1
678,A,0.38115838488277776,-0.3010405799399969,0,0.20053403691877963,0.5499661767794566,0
679,B,1.2897527540827456,0.5996221323635206,1,1.399526033500858,0.8021086664609693,1
680,B,0.6731813512699584,0.5664027251031293,1,0.7630229863318359,0.6820096967221699,1
681,B,-0.13845598398377382,0.09114632149930489,1,-0.33376819108419087,0.4173240476887101,0
682,A,-1.2242982362893657,1.5178309558184893,0,-0.3135996627982722,0.42223634606460553,0
683,A,-0.20902325728602528,0.1253549825972197,1,-0.13381026772769344,0.4665972583977574,0
684,A,-0.8505204542093001,0.8188245153482758,0,-0.35922574500033466,0.41114700415624367,0
685,B,-0.5805234498047227,1.0429872772671278,0,-0.20473108344444602,0.4489952593366365,0
686,A,0.5885784044206096,-1.0693803511007445,1,-0.053049806239837016,0.48674065792144244,0
687,A,1.6699045043514062,-0.32945869517092585,1,1.4722292872488507,0.8133959902598202,1
688,A,0.3946715298229811,0.10554237341756566,1,0.45799695387352046,0.6125388904887407,1
689,B,-1.1958830620351844,0.8199947913732832,0,-0.9538861872112144,0.27810395031800567,0
690,A,0.4446026682201407,-0.1749226219480288,1,0.33964909505132346,0.5841052814106029,1
691,A,1.196631486645651,-0.07311964600729157,1,1.152759699041276,0.7600146261874156,1
692,A,-0.6097829043193822,-0.06470279829236905,1,-0.6486045832948036,0.34330406015129644,0
693,A,-0.1340171666729177,0.04180679239798657,1,-0.10893309123412574,0.4727936253907756,0
694,A,0.014688194729197093,-0.8484840531172808,1,-0.49440223714117143,0.37885706279841186,0
695,A,-0.78489831308224,-0.573612919302349,0,-1.1290660646636494,0.24433349654242012,0
696,A,0.648280433843859,-1.0276674125599754,1,0.03167998630787383,0.5079193342535154,0
697,A,-0.12094814860778157,0.7822524397489603,0,0.34840331524159457,0.5862303335486055,1
698,A,0.41953244390702776,-1.6845175534722596,1,-0.591178088176328,0.35636459185114117,0
699,A,-0.8874921778021001,0.9228722746535404,0,-0.33376881300997585,0.41732389645832907,0
700,A,-0.43745830032341043,1.1090795178102748,1,0.22798941036275439,0.5567517395918793,1
701,A,0.7223813578277714,-0.24174446958609713,1,0.5773346760761131,0.6404538850200452,1
702,A,-0.372833152091767,-2.082509670261839,0,-1.6223389542488702,0.16488255235972915,0
703,A,1.7269638512334051,-0.2890484495738324,1,1.5535347814891056,0.8254236778940361,1
704,A,-0.39963618561460235,-0.051347329031055426,0,-0.43044458303323563,0.3940201742435697,0
705,A,0.22468472575188592,-0.8084785759431308,1,-0.26040241981399254,0.43526478706754534,0
706,B,0.9325908318730899,1.0315054643757622,1,1.3014941104985471,0.786086332002692,1
707,A,-1.4183657329330317,1.224156159090681,0,-0.683872037478623,0.3353976525838981,0
708,B,-1.7608088119807759,-0.054493461518685865,0,-2.043504888891987,0.11471032311347215,0
709,A,-1.5256563145700948,-0.73965129150248,0,-1.9694470894715828,0.12244828725884056,0
710,A,1.262584103427182,-1.2780793356763458,1,0.49573650202137465,0.6214568714790788,1
711,B,-0.5518581458924467,-0.0166052953130847,0,-0.8118213230802975,0.3075025186478993,0
712,A,2.5581992856682523,-0.17076542348035062,1,2.4557400315800417,0.920980196208562,1
713,A,-0.5642475986573886,0.39695934989065307,0,-0.3260719887229968,0.41919667461845567,0
714,A,0.18455130319703697,-0.4282533700541272,0,-0.07240071883543933,0.481907722705661,0
715,A,1.5421099525678756,0.4091996602894892,1,1.787629748741569,0.8566364308748377,1
716,B,2.006092888159123,0.9758462240975727,1,2.3416006226176664,0.9122642806307292,1
717,B,2.061503576636398,-0.3347555163981702,1,1.6106502667974958,0.8335016478442452,1
718,B,1.2083662305931424,-0.33571220219500125,1,0.7569389092761416,0.6806887692326173,1
719,A,1.0240625258114624,-0.14652037684263575,0,0.9361502997058809,0.7183213804055316,1
720,B,0.5925269492011831,0.40806155348266854,0,0.5873638812907842,0.6427600693297073,1
721,B,0.7783610761666377,0.6847355966634371,1,0.9392024341647001,0.718938524685391,1
722,A,-0.5511857163285334,-0.5018507567610423,0,-0.8522961703851588,0.29895140532377507,0
723,A,-0.8181988834223072,0.03617816719998605,0,-0.7964919831023155,0.31077641735634903,0
724,B,-0.0033744574109520514,-0.7346840814093003,1,-0.6941849062565322,0.33310276752101625,0
725,A,-0.17018462252492844,-0.4014273542492256,0,-0.41104103507446377,0.3986625267586751,0
726,B,-0.4532280493272752,-0.9904926359747461,0,-1.2975236309121227,0.2145820808181953,0
727,A,0.6963874474567153,0.25837960289413453,1,0.851415209193196,0.7008639306080409,1
728,B,0.9553052085705107,1.493615496884144,1,1.6014745067009972,0.8322243669032449,1
729,A,0.08840688629184736,0.4001923755492559,1,0.3285223116214009,0.5813997891184541,1
730,A,1.4775300810552618,-0.42688024515133355,1,1.2214019339644617,0.7723101696586279,1
731,A,-1.141689114133505,0.9766570390504383,0,-0.5556948907032421,0.36454416290639924,0
732,B,-0.19365945927971812,0.6567177568535604,1,-0.04962880516758189,0.4875953446780179,0
733,A,-0.7168223206028049,1.3696322272143142,0,0.10495701572578353,0.5262151928559472,0
734,A,-1.86653661707306,-1.3981092078626094,0,-2.7054021417906258,0.06265533959947209,0
735,A,-0.08268068584269925,0.34781605164551294,0,0.1260089451446085,0.5314606189894552,0
736,B,-0.12174750838328353,0.3934554289912289,0,-0.13567425098854624,0.46613337132601196,0
737,A,1.513449743242131,-0.636445654352706,1,1.1315823506305074,0.7561307980690665,1
738,B,0.6308116845547775,-2.663160447297042,1,-1.2170845838234476,0.22844991657313535,0
739,A,-1.024186824329205,1.023614935808127,0,-0.41001786284432873,0.39890783798438806,0
740,A,1.8540925663341883,-1.7734550714832515,1,0.7900195234442373,0.6878355226295294,1
741,A,1.221033695525353,0.40219584599265173,1,1.462351203120944,0.8118920217940447,1
742,A,0.5820977034686158,-1.9946166562640621,1,-0.6146722902898215,0.3509941234800314,0
743,B,-0.22648409884983192,0.44097799856916525,1,-0.2118972997083328,0.4472230034280279,0
744,A,-0.9594392367234797,1.3033330919207562,1,-0.177439381571026,0.45575617748750524,0
745,A,-0.372206776071053,-0.46542562671364324,1,-0.651462152099239,0.34266012037650795,0
746,B,1.088748619704186,0.5792254646510552,1,1.1862838984948192,0.7660757837449765,1
747,A,1.884586305934609,-0.15835018318774552,1,1.7895761960219618,0.8568753090548158,1
748,A,1.543243528272189,1.6543250705308417,1,2.535838570590694,0.9266163575732256,1
749,B,-0.4888494217862741,2.4678522777954495,0,0.7418619448909954,0.6774028780667297,1
750,A,-1.1196174332890112,-0.8410479293114757,0,-1.6242461908758967,0.1646201007650841,0
751,A,0.14088624691120394,1.197945346543701,1,0.8596534548374246,0.7025882460439813,1
752,B,-1.7684393655628516,-1.111657355977846,0,-2.6854337791495593,0.06383836664191954,0
753,A,0.32316771418478146,-0.08274497943222714,1,0.2735207265254452,0.5679570331812741,1
754,A,-0.14760258629866868,-0.991242162021314,0,-0.742347883511457,0.3224909397877927,0
755,A,-0.46603650186824225,1.6766748014473274,0,0.5399683790001542,0.6318050618549689,1
756,B,-1.5947030672667954,-0.35410789708548757,0,-2.057167805518088,0.11333011558303596,0
757,A,0.5136001065697166,0.5431575902097864,1,0.8394946606955884,0.6983587750313573,1
758,A,-0.5327008396619114,-0.649921879149936,0,-0.922653967151873,0.28441743896164,0
759,B,-1.169916835710288,-1.4948608517356614,0,-2.316833346751685,0.08973839288275616,0
760,B,-2.8722622132816493,0.06592093319981847,0,-3.0827096533617584,0.04382612583851166,0
761,A,-0.027514905050636255,0.2646810436924622,0,0.13129372116484106,0.532776360458363,0
762,A,1.772251596669744,1.1608011505050688,1,2.4687322869727852,0.9219205598270103,1
763,A,1.66125921454787,0.7035336329099225,1,2.0833793942938232,0.8892772174207285,1
764,B,-0.45709625658627184,-0.37017934614698367,0,-0.929203864274462,0.28308626109603074,0
765,A,-0.6022120603617805,1.1011971600156303,0,0.058506235647597604,0.5146223881384646,0
766,A,0.46877425607502377,0.25050571201052424,1,0.6190776832813383,0.6500087529835721,1
767,B,-0.9983854391882915,-1.6531410009050846,0,-2.2402700397313424,0.09619206212600051,0
768,B,0.30179189981946597,-0.6777288050051307,1,-0.3548453831836124,0.41220792351181723,0
769,A,0.7660802783846903,-0.889264199610841,1,0.2325217586181857,0.5578699395139514,1
770,B,1.2269332238843076,2.50613132744391,1,2.4806120203506534,0.9227714243658975,1
771,A,-0.10015407647995278,-0.42516364108737204,1,-0.355252261132376,0.41210934353824297,0
772,B,-0.20367375017696587,-2.255909262166854,1,-1.8072193074770782,0.14097453351931538,0
773,A,-0.877982586756561,0.2773679820839359,0,-0.7115617975061995,0.3292538319220882,0
774,A,-0.82688035403986,2.009245241267539,0,0.3786667907206632,0.5935515088664,1
775,B,-0.22647889190152676,-1.0419512782516398,0,-1.1016496588525106,0.24943092565029554,0
776,A,0.3673655068161781,-0.025824488839576262,1,0.3518708135124323,0.5870711726856167,1
777,A,0.9135846262332494,0.5124343480598188,1,1.2210452350691408,0.7722474390742801,1
778,B,-0.8031789506803448,0.004050607916593198,0,-1.050748585930389,0.259081377683552,0
779,B,1.4926885689595217,0.3933854074117023,1,1.4787198134065431,0.8143791382109823,1
780,A,-0.2711236010425688,-1.0393730907566594,1,-0.8947474554965644,0.29013109172231777,0
781,A,-0.021367294348436157,0.18622939435213093,0,0.0903703422628424,0.5225772223540978,0
782,A,-0.7472116791478234,-0.6054111816127411,1,-1.1104583881154682,0.24778544072335412,0
783,A,-2.4242402602729416,-1.7519373639828428,0,-3.4754026786626473,0.03002026055204368,0
784,A,0.8840453963610497,0.9556737764109846,1,1.4574496622076405,0.8111422973221469,1
785,A,0.7368438970924334,0.766708655873634,1,1.1968690906166137,0.767967343926539,1
786,B,-0.2813275571182134,-0.48972100699226473,0,-0.8251601613135722,0.30466940006430426,0
787,A,0.06699071722487192,0.18325975056456206,1,0.17694656756360916,0.5441215810389854,0
788,A,0.5159392177040995,0.8594544101724492,0,1.0316118638075689,0.7372282698974195,1
789,A,-1.5625458568865427,0.1794717254224661,0,-1.454862821633063,0.1892543009945162,0
790,B,-0.5290526773462948,-0.28154468394889653,0,-0.9479794877156327,0.2792913448015659,0
791,A,0.7942646796218271,-0.23798576069908012,1,0.651473223202379,0.6573423733205004,1
792,A,-1.2542894231692494,1.0495869908591573,0,-0.624537228653755,0.34875023422749685,0
793,A,0.2935579321666293,0.25662858074614714,1,0.44753508061431757,0.610053017705616,1
794,A,-1.356581804623405,0.15524155488469923,0,-1.2634368716925855,0.22038282130282805,0
795,A,0.46642998243352635,-1.0160488709696256,1,-0.14319934014824903,0.4642612158783196,0
796,B,-0.03564148229748357,-1.3343604309289963,0,-1.0862577408548812,0.25232362499356326,0
797,B,-1.6151318159055095,1.757012686502925,0,-0.8109242040037545,0.3076935884017924,0
798,A,1.1647393544571714,-0.5106261812227954,1,0.8583636457234942,0.7023186597022625,1
799,A,-0.7345915767980492,-0.652300502652897,0,-1.1259718783897874,0.24490524234851616,0
800,B,-0.810252437014381,2.11034458103416,0,0.205954311606115,0.5513073465783689,1
801,B,0.20056919723094285,0.44652656712823546,1,0.21848513750788412,0.5544050342491713,1
802,A,1.1486373494287152,1.0650712495907226,1,1.7876800991831487,0.8566426143245003,1
803,A,-1.015821818978397,1.536294001715409,0,-0.09404541794915167,0.4765059591272931,0
804,A,0.06167984984797165,-0.9783160156444511,1,-0.525309759538699,0.3716114749002097,0
805,A,0.42881650033057295,0.05700299992871399,1,0.46301830028780133,0.6137299561606082,1
806,B,0.6931056072631441,-0.7508127449954549,1,-0.007382039734128876,0.4981544984472688,0
807,B,0.1764415552772252,-1.5830966335185208,1,-1.0234164248338873,0.2643624568325604,0
808,B,-0.3670278390833223,-0.2435767648747885,1,-0.7631738980081955,0.31795757558878723,0
809,A,-0.8275902206487197,0.9916672051532492,0,-0.23258989755677018,0.442113254010209,0
810,A,0.08614388304637476,-0.3169837424814079,0,-0.10404636244247,0.47401185003534846,0
811,B,-1.072139011985607,1.484925761620967,0,-0.43118355501302674,0.39384374500283165,0
812,B,-2.9213504834946074,-0.548761986104148,0,-3.500607675157096,0.029294945500150795,0
813,A,0.4365598041576678,1.8429110016838313,1,1.5423064051679667,0.8237997585613183,1
814,B,0.9039348410861953,0.06962728177007427,0,0.6957112101482398,0.667236207321081,1
815,B,-2.3629324355418384,1.0181170586463415,0,-2.0020622003540334,0.118986574183401,0
816,A,-1.0097307047099375,0.9171526963205822,0,-0.4594390869175883,0.3871188964670818,0
817,A,0.6191542610051978,-0.7787030704216278,1,0.15193241875222113,0.5379102078318707,0
818,A,2.0574954697116987,0.8057066691785277,1,2.5409194712188152,0.9269611031000633,1
819,A,0.020793707675407894,0.2689159704209831,1,0.18214328992799775,0.5454103467,0
820,A,-0.7280029412291344,-0.18198100796272623,0,-0.8371915460067701,0.3021266063498515,0
821,B,-0.18289644110484016,-2.251863247250249,0,-1.7840143894549894,0.14380814578741943,0
822,A,1.3748764191481848,-0.5752875611593488,1,1.0297038824525755,0.7368584832429848,1
823,A,-0.6459641791245353,1.639849676628741,1,0.33794562685270924,0.5836914049848828,1
824,A,-0.7991920066502536,0.0005462551659861024,0,-0.7988642535506619,0.3102685184548492,0
825,A,-0.4827435221820324,0.6257040012251673,0,-0.10732112144693201,0.4731954422137958,0
826,B,-0.9533286082587124,-0.22143042918701944,0,-1.336186865770924,0.20813782647965104,0
827,A,0.12267031599479553,-0.6238823569773111,0,-0.25165909819159116,0.43741518071717295,0
828,A,1.6246784584695606,0.8655878473999539,1,2.144031166909533,0.8951096932796574,1
829,B,0.3230792731160291,1.0764794362645587,1,0.7189669348747643,0.6723794885327441,1
830,A,-0.2523535021262876,-0.33217101432421725,0,-0.4516561107208179,0.38896708311312633,0
831,A,-0.2918112689155441,0.02722192885778564,0,-0.2754781116008727,0.431562724098414,0
832,A,-1.563190808696657,0.08909808147204194,0,-1.5097319598134318,0.18097852009065218,0
833,A,0.883109777147159,-0.143274628012925,1,0.7971450003394039,0.6893634380159228,1
834,A,-0.07783719701280203,0.3166558248767385,0,0.11215629791324105,0.5280097193616816,0
835,A,-0.18047991359062565,0.5542846046542492,0,0.1520908492019239,0.5379495875140096,0
836,A,3.193107567844861,0.587710036367464,1,3.545733589665339,0.9719613899213435,1
837,B,0.29875290836568624,-0.8810085585341949,1,-0.47985222675483064,0.38228702033783274,0
838,A,-0.7517910500951843,-0.22732407834303775,0,-0.888185497101007,0.29148441901492317,0
839,A,-0.4263575962055433,0.9558102895015502,0,0.14712857749538683,0.5367159363231415,0
840,A,1.1484457091967548,0.7157177500590979,1,1.5778763592322136,0.8289035483607973,1
841,A,0.11327041053776446,-1.0982875611848513,0,-0.5457021261731463,0.3668621222103759,0
842,A,-1.4382779783173667,0.28118392028176137,0,-1.26956762614831,0.21933127634556,0
843,A,0.9192289345752035,-1.5825801994998483,1,-0.03031918512470544,0.4924207843113167,0
844,B,-0.668144085538994,1.6925509742442044,0,0.0973864990075286,0.5243274007707164,0
845,A,1.8732977762175456,1.5182136133967816,1,2.7842259442556143,0.9418174478009324,1
846,A,1.0800480657146485,-0.7583141738151891,1,0.6250595614255351,0.6513683904497901,1
847,A,-0.4473218956587512,-0.6674584363932657,0,-0.8477969574947106,0.2998952000706673,0
848,B,1.281016361735113,0.8374839270468332,1,1.533506717963213,0.8225188096720298,1
849,A,0.0678555105274033,-1.2342412121677169,1,-0.6726892167732268,0.33789494194973174,0
850,A,0.8527736751222195,-0.5062040239080313,1,0.5490512607774007,0.6339154482609443,1
851,A,0.48473281729447476,0.47715291006540217,0,0.771024563333716,0.6837424856751847,1
852,B,-0.8463566549908735,0.5558217543211016,0,-0.7628636023982126,0.31802487026793613,0
853,A,-0.643549832317462,-0.1887759897687773,0,-0.7568154261787283,0.31933807061112673,0
854,B,1.0299608175811612,0.37357040813146186,1,1.0041030624600382,0.7318645244666396,1
855,A,-0.33477533210654087,0.337236866829249,0,-0.13243321200899147,0.4669400015980995,0
856,A,-0.4036484632419967,0.21345471703632152,0,-0.2755756330202038,0.4315388006605099,0
857,A,-0.955122579349353,-0.271297823416031,0,-1.1179012733989715,0.24640078326661882,0
858,A,0.42359906559346105,0.2960488922151643,0,0.6012284009225596,0.6459372946868307,1
859,A,2.062524919243145,-0.0989861440798053,1,2.003133232795262,0.8811256550203761,1
860,A,-1.0675329142542729,0.3662444879406278,0,-0.8477862214898962,0.29989745418634994,0
861,B,0.02421945667275807,2.171167619679732,1,1.0769200284805973,0.7459106849457289,1
862,A,1.4122205554154292,-0.1460551795036329,1,1.3245874477132495,0.7899439257743395,1
863,A,-0.07964139124571515,-0.7919662340416112,0,-0.5548211316706818,0.3647465946319167,0
864,A,0.4523717962497339,-0.028006088004988723,1,0.43556814344674066,0.6072025028649972,1
865,A,-1.0623935281468797,-0.6488006909030759,0,-1.4516739426887253,0.18974407828579984,0
866,A,0.4283070972076486,-0.8912371601295948,1,-0.10643519887010822,0.47341629156653586,0
867,A,-0.18714426500454878,0.2069289182843105,0,-0.06298691403396248,0.4842584754939453,0
868,A,0.985729995679863,0.17019182068612826,1,1.08784508809154,0.7479757204926527,1
869,B,1.1873860515647512,0.018742000739523656,1,0.9486312520084654,0.7208398284531314,1
870,B,2.589563642018614,1.0827326085439766,1,2.9892032071449997,0.9520839734865788,1
871,A,0.5796331732135757,0.3264422774694046,1,0.7754985396952184,0.6847091362460332,1
872,A,0.32579631658216646,0.4406380578189306,1,0.5901791512735248,0.6434062502595961,1
873,A,0.19438430157733602,0.35581904626527583,1,0.4078757293365015,0.6005784093821082,1
874,A,-0.35316629281068834,-0.6605229462417137,0,-0.7494800605557166,0.32093460357954273,0
875,A,0.33848384346169114,0.11949078581695112,1,0.4101783149518618,0.6011306346579641,1
876,A,-0.29540141013902943,0.2913122368437291,1,-0.12061406803279198,0.46988298538409146,0
877,B,0.1684609762696143,-1.3103206804743757,1,-0.867731432015011,0.2957265629644612,0
878,A,1.3175975356079597,-1.6691821266968678,1,0.3160882595898391,0.5783706363479836,1
879,A,-1.0065425652796411,0.12839169917878407,0,-0.9295075457723707,0.283024633472899,0
880,A,1.1398785611290454,1.7700248315177938,1,2.2018934600397215,0.9004194154009068,1
881,A,1.3171150673398653,-0.2880314150055862,1,1.1442962183365135,0.7584675563871314,1
882,A,-0.11806852699107874,-0.582461678284257,0,-0.4675455339616329,0.38519734708264186,0
883,A,-2.1218548990085946,0.29867884776911857,0,-1.9426475903471234,0.12535727915837913,0
884,A,-0.6078219870944325,0.2499025683732574,0,-0.45788044607047806,0.3874887612530052,0
885,B,1.2969945465611092,0.5558475505189476,1,1.3805030768724778,0.7990717844466619,1
886,A,-0.022868062298882122,-1.0062945247271102,0,-0.6266447771351483,0.3482717131358569,0
887,A,-0.9993022322949108,0.5851042020599939,0,-0.6482397110589144,0.34338632397936786,0
888,A,-0.5047749212282174,0.4723376490011708,1,-0.22137233182751498,0.44488182551373145,0
889,A,0.840620026504553,-0.11371722955243689,1,0.7723896887730909,0.6840376045531553,1
890,A,0.5467335682013793,0.270949854337352,1,0.7093034808037906,0.6702472362653443,1
891,B,-0.23893209916969432,-0.8361261821154898,1,-0.9906078084389882,0.27079204082130154,0
892,B,-0.36682441181468756,0.6984318805016723,0,-0.19776528351368422,0.45071919342898703,0
893,B,-0.3917581490438219,0.31253071600026716,0,-0.4542397194436616,0.3883532088990077,0
894,A,-0.9224101844985025,0.6561265494043876,0,-0.52873425485587,0.37081215134420054,0
895,A,1.6153756894694418,-0.05175088402601479,1,1.584325159053833,0.829816194074294,1
896,A,-0.3223204692113399,0.058299278412412316,0,-0.2873409021638925,0.42865498251400774,0
897,A,1.2171585208254965,0.0585575928013556,1,1.2522930765063098,0.7776965512777951,1
898,B,1.5213160519224513,-1.8777633256344661,1,0.14465805654177166,0.5361015810810182,0
899,A,0.9983108981479604,0.953365997685652,1,1.5703304967593517,0.8278307180882226,1
900,A,-0.4316203127180484,-0.06697436787936961,0,-0.47180493344567015,0.384189129135436,0
901,A,0.40373009033660945,-0.895636902706535,1,-0.1336520512873115,0.466636636186968,0
902,A,-0.024195606390916165,-0.3148238847757831,0,-0.21308993725638603,0.44692818461916756,0
903,A,-0.9037018607301281,0.14295577344838048,0,-0.8179283966610998,0.30620358064004033,0
904,A,0.324359281721603,0.9833718274376404,0,0.9143823781841872,0.7138960951391289,1
905,A,-1.1790397911598025,0.4824757479590669,0,-0.8895543423843624,0.2912018040822014,0
906,B,1.1876793884615637,0.3793871486193339,1,1.165311677633164,0.7622965341958072,1
907,B,-0.4646172972983931,0.5631211077702315,0,-0.3767446326362542,0.40691229140668983,0
908,A,0.2011596558728393,0.2118202487823837,0,0.3282518051422695,0.5813339534052485,1
909,A,0.28328787154614216,1.0203125903992118,0,0.8954754257856692,0.7100188145196225,1
910,A,-0.25890497370407733,-0.12137154686178331,0,-0.3317279018211473,0.41782025751852053,0
911,A,0.5866938014752747,0.42668739576435954,1,0.8427062389338904,0.6990348748926174,1
912,A,-0.47490365662252443,0.6715748036147238,0,-0.0719587744536902,0.48201806501970096,0
913,A,0.8712972974572442,0.9745557694034048,1,1.4560307590992871,0.8109248389197147,1
914,A,-1.3459796802467485,0.8458946443025801,0,-0.8384428936652005,0.3018628298988806,0
915,A,0.12637957954641182,0.6977576000583823,1,0.5450341395814412,0.6329827078737933,1
916,A,1.9389289990582848,-0.2520693849552869,1,1.7876873680851126,0.8566435069872925,1
917,A,-1.0003313246055747,-0.4573968335648491,0,-1.274769424744484,0.21844189851071927,0
918,B,-0.6777449705248515,-1.5746630321176875,0,-1.8725427897954638,0.1332477746369948,0
919,B,0.513907849658915,0.7464839883672584,1,0.7117982426792699,0.6707983838802619,1
920,A,0.17958178193959795,-0.17817656062128565,0,0.07267584556682656,0.51816096857746,0
921,B,0.3506300992735592,0.4641702248270431,0,0.37913223416978514,0.5936637913300923,1
922,A,0.4891871301476635,1.1620933963889435,0,1.1864431679810297,0.7661043242130465,1
923,B,0.6347214685617699,2.4147245348409183,1,1.8335561894663206,0.8621848254178438,1
924,B,1.1096998419562232,1.2284514553283776,1,1.5967707151532498,0.8315665639966903,1
925,A,0.40981865692851255,-0.11230004712426916,1,0.342438628653951,0.5847827731032809,1
926,A,-0.24125765461854246,0.24609013455135714,0,-0.09360357388772816,0.47661617740035156,0
927,A,0.6725737012027313,-0.4196536110136408,1,0.4207815345945468,0.6036702490957617,1
928,A,1.8998819348952156,1.0817621430937157,1,2.548939220751445,0.9275022182143168,1
929,A,-0.13263374638257355,0.33925348921476095,1,0.070918347146283,0.5177221597389279,0
930,A,-0.9745293046706415,0.03155763859259159,0,-0.9555947215150865,0.27776107138418477,0
931,A,1.1070806692869728,-1.1487276190948221,1,0.4178440978300796,0.6029672464903898,1
932,B,-0.12038116395359824,1.838841269613739,1,0.7329235978146452,0.6754465078320409,1
933,B,-2.172669546014036,0.5998369484884456,0,-2.062767376920969,0.11276865194855966,0
934,A,0.8474216771504216,-1.706076500923869,1,-0.17622422340389965,0.4560576045065411,0
935,A,-0.5353281859539227,0.8101099277152575,0,-0.04926222932476826,0.48768693264713736,0
936,A,-0.09053328230416077,-0.12652307549785624,0,-0.1664471276028745,0.4584840226597985,0
937,A,0.33198033056901455,2.594474375675787,1,1.8886649559744866,0.8686032347445258,1
938,B,0.1904996797790664,1.0622777795867893,1,0.5778663475311399,0.6405763053001367,1
939,A,0.7094518171390395,-0.14515925539801341,1,0.6223562639002315,0.650754254147878,1
940,A,-0.43548637056984335,-0.08506960202505198,0,-0.48652813178487453,0.3807117914567651,0
941,A,0.5131057981760827,0.7964652112016238,1,0.990984924897057,0.7292824195570616,1
942,A,-0.2595466775839172,1.3625380879344302,0,0.5579761751767409,0.6359841370761835,1
943,A,0.738810480887503,-1.3104232459488134,1,-0.04744346668178501,0.4881413576136939,0
944,B,0.6153674840130534,1.7779960829551185,1,1.4321651337861245,0.8072384445402268,1
945,A,-0.9354387020445953,-0.49762784444350516,0,-1.2340154087106985,0.22547940809931175,0
946,A,1.0859821161750323,0.4661900665390915,0,1.3656961560984873,0.7966839128100656,1
947,A,-0.535963445114048,0.39749887240607773,0,-0.29746412167040137,0.4261775164392978,0
948,B,0.8080577982811451,1.6097710986370573,1,1.5239204574633796,0.8211150625751565,1
949,B,0.36728731340134063,-0.8909810790460608,1,-0.4173013340262958,0.3971626971998872,0
950,A,1.8381836767951225,-1.8529150903751015,1,0.7264346225700617,0.6740223879459631,1
951,A,-0.22346598237185214,0.6864113562417163,0,0.18838083137317765,0.5469564266914025,0
952,A,-0.3493167961181975,-0.6625570183721877,0,-0.7468510071415101,0.32150783740275823,0
953,A,-0.01941960588773261,-1.6147902915109105,0,-0.9882937807942789,0.2712492195890877,0
954,B,-0.30317978283427544,-1.055777224202465,0,-1.1866461173557543,0.23385931155922765,0
955,A,0.7999419019420501,0.634540550574942,1,1.1806662322870152,0.7650675729562988,1
956,A,-1.616310608436588,-0.09764570569702181,0,-1.674898031854801,0.15777223608935045,0
957,A,-1.053682419146354,-0.3662787089459914,0,-1.273449644513949,0.21866730176337332,0
958,A,-1.067802921579193,-0.12748978571672526,0,-1.1442967930092283,0.24153233833599083,0
959,A,0.9503075919735757,-0.2964662099206263,1,0.7724278660212,0.6840458557499274,1
960,B,1.7106133725819253,1.0247711718626684,1,2.0754760756995263,0.8884966335348394,1
961,A,-0.1044492185374715,-0.5717445415923454,1,-0.4474959434928788,0.3899562925990728,0
962,A,-0.16882172319001063,0.4170239240110516,1,0.0813926312166203,0.5203369317685455,0
963,A,0.07005216311318138,0.2573428331012001,1,0.22445786297390144,0.555880053212351,1
964,A,1.1618783026081905,0.1344478447734562,1,1.2425470094722642,0.7760070469449778,1
965,A,-0.9273531341905741,-0.7961187854827037,0,-1.4050244054801961,0.197020024541831,0
966,A,0.23836898273478513,-0.14520252970853373,1,0.1512474649096649,0.5377399493614362,0
967,B,0.9751976297824297,0.28958632190013717,1,0.8989494229225121,0.7107335608758226,1
968,A,0.5010941699398452,0.1427813311083118,0,0.5867629686048323,0.6426220761878215,1
969,A,0.1895816165987434,1.143086166250854,0,0.8754333163492558,0.7058749990457539,1
970,A,1.0010460925671412,-1.1793057056336846,1,0.2934626691869304,0.5728436395501677,1
971,A,-2.703232292999237,-0.4687421386542043,0,-2.9844775761917597,0.04813207133210394,0
972,B,0.6778753195309076,1.8876236702578275,1,1.5604495216856042,0.8264178469535032,1
973,B,-0.6540756831274238,-0.5589666829417954,0,-1.2394556928925011,0.2245307444719711,0
974,A,-1.830632896856457,-0.35857969304011955,0,-2.0457807126805285,0.11447941153840231,0
975,A,0.5112025995249807,-0.5538002634127172,1,0.17892244147735042,0.5446116601722871,0
976,A,1.3736585451629577,-1.5751385139328666,1,0.42857543680323773,0.605533444638031,1
977,A,-0.13744851462769186,0.0827505034464851,0,-0.0877982125598008,0.47806453589157377,0
978,A,0.9528745472029388,1.6336608321149955,1,1.933071046471936,0.873588948801673,1
979,A,1.6122782579886454,0.22188676957174072,1,1.74541031973169,0.851372973543735,1
980,A,1.3149144535840473,-0.017823183346970653,1,1.304220543575865,0.786544436691997,1
981,A,1.639964529371393,0.2576658486135884,1,1.794564038539546,0.8574859299357184,1
982,B,0.7421274910718922,-0.9651789115919908,1,-0.08697985588330215,0.47826873495063527,0
983,A,0.0754336389015928,-0.6504114978081039,1,-0.3148132597832696,0.4219403136389193,0
984,A,-1.6019658118971685,0.6586239325421643,0,-1.20679145237187,0.23026925878824236,0
985,B,-0.24606248812994858,0.3037982856455774,0,-0.31378351674260213,0.4221914950188666,0
986,A,-0.8432465953161917,0.014090601546925853,0,-0.8347922343880362,0.3026327319408878,0
987,A,2.1709427174978138,-0.7802928218226,1,1.7027670244042539,0.8458957787801608,1
988,A,-0.1758858124323366,1.0428063455478074,0,0.44979799489634786,0.6105912043525977,1
989,A,0.12320480678448567,0.5317621962664879,1,0.4422621245443784,0.6087979175421202,1
990,B,0.5514853760404675,-0.2357599001137166,1,0.16002943597223762,0.539922196642701,0
991,B,0.043602446372453724,-0.24703131705640843,1,-0.3546163438613913,0.41226341914920217,0
992,A,1.695051040430753,-0.39805667070816575,1,1.4562170380058537,0.8109533986175325,1
993,A,-0.622649361734452,-0.6256027940088296,0,-0.9980110381397497,0.26933265467530615,0
994,A,0.1946074552372427,-0.6077624939842297,1,-0.17005004115329508,0.457589638916925,0
995,A,-0.7424705856980482,-1.416854842470473,0,-1.592583491180332,0.1690207282293234,0
996,A,-1.3200225112207058,0.3772339043345646,0,-1.0936821686199671,0.2509255363857197,0
997,B,-0.6117690909052854,-0.30741570299445614,0,-1.0462185127019592,0.2599519110583887,0
998,A,-0.03703679704841202,-0.9827550650126101,1,-0.6266898360559781,0.34826148579830346,0
999,B,-0.42930222451725997,-0.0741170398321547,0,-0.7237724484165529,0.3265628056270332,0
1000,A,-0.692420979873856,-0.06885575423271445,0,-0.7337344324134847,0.32437576749740477,0
